{"type":"RNN","options":{"inputSize":15,"inputRange":15,"hiddenLayers":[20,20],"outputSize":15,"decayRate":0.999,"smoothEps":1e-8,"regc":0.000001,"clipval":5,"maxPredictionLength":100,"dataFormatter":{"indexTable":{"na ti edin":0,"na ti dva":1,"hui":2,"jest":3,"dwa":4,"vui":5,"kest":6,"rrr":7,"ne":8,"mest":9,"55fd":10,"da":11,"stop-input":12,"start-output":13,"unrecognized":14},"characterTable":{"0":"na ti edin","1":"na ti dva","2":"hui","3":"jest","4":"dwa","5":"vui","6":"kest","7":"rrr","8":"ne","9":"mest","10":"55fd","11":"da","12":null,"13":null,"14":null},"values":[{"input":["na ti edin","na ti dva"],"output":["hui"]},{"input":["jest","dwa"],"output":["vui"]},{"input":["kest","rrr"],"output":["ne"]},{"input":["mest","55fd"],"output":["da"]}],"characters":["na ti edin","na ti dva","hui","jest","dwa","vui","kest","rrr","ne","mest","55fd","da","stop-input","start-output","unrecognized"],"specialIndexes":[12,13,14]},"learningRate":0.01},"trainOpts":{"iterations":20000,"errorThresh":0.005,"log":false,"logPeriod":10,"learningRate":0.01,"callbackPeriod":10,"timeout":"Infinity"},"input":{"rows":16,"columns":15,"weights":[-0.0327828973531723,0.2870919108390808,0.057639699429273605,-0.5154324769973755,0.39043259620666504,0.23568153381347656,0.19826403260231018,-0.132902130484581,-0.4080601632595062,-0.029473548755049706,0.13258858025074005,-0.00836028903722763,-0.14149735867977142,-0.274769127368927,-0.22130213677883148,0.4377460479736328,-1.0968793630599976,2.898361921310425,-0.8640955090522766,-1.4410074949264526,-0.025853293016552925,-0.6328492164611816,-0.522463858127594,-0.8105227947235107,-0.9074670672416687,-0.8511752486228943,-1.1537482738494873,0.2580254077911377,2.44108247756958,0.7580087780952454,0.5172306895256042,-2.256293773651123,0.026220371946692467,1.6025420427322388,-1.2335166931152344,0.02274175174534321,0.5195403099060059,2.7257559299468994,0.5315888524055481,-0.5795087814331055,-0.02649257704615593,0.7382066249847412,-2.854952096939087,2.3101248741149902,-1.4589455127716064,1.0371283292770386,1.671621561050415,-0.5332626104354858,1.6151858568191528,-1.2047171592712402,-1.6657297611236572,-4.453003406524658,-2.4047155380249023,-0.9347947835922241,-1.23563814163208,0.24889515340328217,-0.961252748966217,2.010648250579834,-0.06152210384607315,-1.70871901512146,-0.7208192348480225,-0.975099503993988,1.1681709289550781,1.2076796293258667,-0.7025193572044373,0.7881149649620056,0.15950512886047363,2.07019305229187,1.2964807748794556,3.369440793991089,-1.1376842260360718,0.6758230328559875,1.7490781545639038,0.8852210640907288,0.3978397250175476,-2.5682785511016846,0.9915485978126526,-2.666470766067505,1.4062501192092896,0.9930315613746643,0.7864850759506226,0.010103696025907993,1.0149924755096436,1.0942586660385132,-2.747420310974121,1.1705068349838257,0.07378263026475906,-1.520777940750122,-0.25123298168182373,-0.3801492750644684,0.31589260697364807,2.091641664505005,-1.2423537969589233,2.090362548828125,-0.052755169570446014,-3.167741060256958,-1.158583402633667,-2.3264501094818115,-1.4341983795166016,-1.3349354267120361,-1.0445116758346558,-0.4456789493560791,0.7273486852645874,-0.10199776291847229,-1.621086835861206,0.0010112471645697951,0.09429075568914413,-1.7274127006530762,0.3991566598415375,0.5017138123512268,0.18009915947914124,0.7124960422515869,-0.9485558271408081,0.12749886512756348,2.1641695499420166,-1.942927598953247,1.6580307483673096,0.5623185634613037,-1.9466804265975952,-1.3144978284835815,-1.7633503675460815,0.05017530173063278,1.1185489892959595,0.11934566497802734,-0.4424908459186554,0.6232165098190308,0.2965086102485657,0.15998947620391846,-0.878023087978363,-0.12729577720165253,0.22802625596523285,-0.3937435448169708,-1.3768898248672485,0.9720989465713501,1.6464372873306274,0.9856728911399841,-0.2846439778804779,-2.278860569000244,1.215404748916626,-1.2300128936767578,-2.063748598098755,-2.1262669563293457,1.196602702140808,-0.48708781599998474,-3.2085816860198975,1.6522676944732666,0.5364320278167725,0.3793489336967468,1.2791534662246704,-0.3201510012149811,-1.080622673034668,-1.0802099704742432,-0.5362780690193176,-0.7084546685218811,1.0260812044143677,1.0779147148132324,1.5597028732299805,1.1664937734603882,0.7807092070579529,1.002859354019165,-1.808272123336792,-0.05427786335349083,0.1226637065410614,-0.9385877847671509,0.3099060654640198,-0.35288819670677185,0.9569225311279297,0.7159853577613831,1.533893346786499,-0.19184771180152893,-1.5464166402816772,-0.27370280027389526,-1.4235002994537354,1.7501872777938843,0.6585354804992676,-1.4486883878707886,-0.2569313049316406,1.6222198009490967,-0.7523327469825745,0.6282867193222046,2.8091766834259033,1.4715110063552856,0.6729658842086792,1.6387381553649902,-0.5719843506813049,-1.4528058767318726,-2.1410598754882812,-2.3483176231384277,1.492478370666504,-0.39182114601135254,-0.865229070186615,-0.4596712291240692,0.5744647979736328,0.8440425395965576,-0.6091418862342834,0.5702927708625793,-1.6711926460266113,0.43315717577934265,-0.3729245364665985,-1.565205693244934,1.4182677268981934,2.1661531925201416,1.2828844785690308,2.397552967071533,1.6203538179397583,-0.1698799729347229,1.9509001970291138,-0.7548410892486572,-0.23757611215114594,-0.7954222559928894,-2.02734637260437,0.2881408631801605,-1.5352355241775513,-1.412371039390564,-0.22681251168251038,0.18974989652633667,-0.6018530130386353,2.6430540084838867,-0.9916265606880188,-1.1075795888900757,2.138110399246216,-1.4266947507858276,-1.037255048751831,0.26564955711364746,1.4353275299072266,-0.02039092220366001,0.014898989349603653,-0.0005356206092983484,-0.017813920974731445,-0.008814877830445766,0.016794612631201744,-0.0680471733212471,0.019963234663009644,0.04389041289687157,-0.025120753794908524,0.05354468151926994,-0.06558126211166382,-0.009596009738743305,-0.016896381974220276,-0.033061668276786804]},"hiddenLayers":[{"weight":{"rows":20,"columns":15,"weights":[0.26008835434913635,-0.19312210381031036,1.136733889579773,-0.20164340734481812,-0.7160441279411316,0.40084004402160645,-0.4836093485355377,-0.27083519101142883,0.5077064633369446,-0.0035218531265854836,-0.5130157470703125,-0.29207175970077515,-0.20797273516654968,1.3397294282913208,0.4664781391620636,-0.04668981209397316,0.4646686911582947,0.051114849746227264,-0.025880562141537666,0.08981078863143921,-0.3845338225364685,-0.9577999114990234,-0.5637111067771912,-0.6023885011672974,-0.9676826596260071,0.7525891065597534,-0.15082383155822754,0.07108529657125473,-0.8348243832588196,0.17936140298843384,-0.19344981014728546,0.3102472126483917,-0.3299065828323364,0.5275603532791138,-0.21499204635620117,-0.1050078421831131,-0.2305786907672882,-0.20432357490062714,-0.10919149965047836,-0.4633086621761322,0.6851270198822021,-0.01849767379462719,0.6088436245918274,0.6344467401504517,0.033548686653375626,-0.4057096242904663,-0.03164200857281685,-0.7945017218589783,-0.03517135977745056,0.1416817307472229,-0.76725172996521,-1.284476399421692,0.48762431740760803,-1.5154085159301758,-2.1191279888153076,0.7128371596336365,-1.281895399093628,-0.8114578127861023,1.6035596132278442,1.3340083360671997,0.99480801820755,-0.638952374458313,-0.039158377796411514,0.16016389429569244,-0.5589103102684021,0.7304074168205261,-0.4413008391857147,0.6584151387214661,0.7150807976722717,0.4761470854282379,0.5899868607521057,0.4570315480232239,0.7076257467269897,0.5306442379951477,-0.303936243057251,0.47522521018981934,-0.01828792691230774,0.6678029894828796,1.2639586925506592,-0.3955155909061432,-0.9123335480690002,0.5088224411010742,-0.5162730813026428,0.72325199842453,0.6465548872947693,-0.5096102356910706,1.5591189861297607,0.7584097981452942,-0.26866739988327026,-0.36262285709381104,0.0615120492875576,0.13881391286849976,0.010486378334462643,0.15533320605754852,-0.04161371290683746,-0.06851715594530106,-0.008497937582433224,-0.05266254395246506,-0.039628706872463226,0.11509087681770325,0.009650959633290768,0.12737880647182465,0.2930995225906372,0.13976754248142242,-0.12740489840507507,0.880811333656311,1.333797574043274,0.7569183707237244,1.817622423171997,-0.48767000436782837,-0.6299315690994263,0.025273650884628296,-0.43624788522720337,0.5861523747444153,-0.3827652037143707,-0.11839157342910767,0.02505875937640667,0.7855156660079956,-0.2643823027610779,-0.3501950800418854,-0.2823650538921356,1.7221697568893433,-1.427214503288269,-0.2970251739025116,-0.1200287789106369,0.2646753191947937,-0.1693829596042633,-0.27717122435569763,-0.845794141292572,-0.5288212299346924,-0.4593357443809509,-0.8240921497344971,0.7843430638313293,-1.0910066366195679,0.22714228928089142,0.8275794982910156,1.0627837181091309,1.0368633270263672,1.5683155059814453,-1.2971422672271729,-2.1845486164093018,-0.48982977867126465,-0.7489864230155945,1.4417542219161987,0.09372460842132568,-0.1617475003004074,0.021432748064398766,1.6638970375061035,-0.7824426889419556,-2.2257144451141357,0.21447013318538666,1.1755427122116089,-0.22438697516918182,0.4073461592197418,0.014980035834014416,-1.1810460090637207,-0.6267499327659607,-0.9234627485275269,0.3390805423259735,-0.42342609167099,0.10646332800388336,-0.2622065544128418,1.3261306285858154,0.4194135069847107,-0.025122158229351044,0.5793918967247009,-0.652744710445404,0.8015812039375305,0.1099046915769577,-1.3511158227920532,0.960253894329071,-0.5401855707168579,-0.1488785296678543,-0.3652134835720062,0.6524999737739563,-0.9789263010025024,0.21060965955257416,-0.00149129971396178,0.8354910016059875,-0.2715723216533661,-0.5371226072311401,1.6796391010284424,-0.32170429825782776,-0.44779446721076965,-0.22469660639762878,-0.31886133551597595,-1.4404867887496948,0.6178832650184631,-0.6545314192771912,-0.611651599407196,0.9641678333282471,-1.5246809720993042,-0.504737377166748,1.1108567714691162,0.9322353005409241,0.18685302138328552,0.10926676541566849,-0.13303735852241516,0.1139703318476677,-0.03879417106509209,-0.28204289078712463,-0.09660494327545166,-0.15794995427131653,-0.10607496649026871,-0.01808028668165207,-0.1433124840259552,-0.08113308250904083,0.1423424929380417,0.10520666837692261,-0.17183664441108704,0.7667795419692993,0.5705692172050476,-0.05105164647102356,0.008964584209024906,0.5247118473052979,-1.1750593185424805,0.29985371232032776,-1.8306427001953125,-0.60787433385849,0.3350561559200287,-0.5064863562583923,-0.42975878715515137,0.42857617139816284,0.5522228479385376,0.60163813829422,-0.9251151084899902,-0.20978493988513947,-0.15333984792232513,-0.12609778344631195,0.8252717852592468,0.24711517989635468,0.07810898870229721,0.23828671872615814,0.21868325769901276,0.6177514791488647,-0.9919161796569824,0.1255885660648346,-0.39719370007514954,-0.12327027320861816,0.04854714870452881,0.16137349605560303,-0.6487929224967957,0.7832868099212646,1.5749214887619019,-1.1236506700515747,-0.05932610481977463,-0.08634261041879654,-0.10335570573806763,0.34023013710975647,0.62617427110672,-0.01434097345918417,0.6467527151107788,1.364421010017395,-0.780937671661377,-1.2276356220245361,-0.07400645315647125,-0.9604579210281372,-1.67243492603302,0.9619228839874268,-0.635840654373169,0.913935661315918,0.3252396285533905,-0.5499479174613953,-0.9888795018196106,-0.4829050600528717,0.9779500961303711,0.028410719707608223,0.9561437368392944,-0.33248013257980347,-1.2652876377105713,0.3994327783584595,0.2179272174835205,0.19713780283927917,0.8371401429176331,-0.4149080514907837,-0.15537171065807343,-0.3767625093460083,-0.6226272583007812,-0.5819559097290039,-0.4634767174720764,0.22448323667049408,0.5385352373123169,0.8781098127365112,0.005428549833595753,-0.6545708775520325,0.31256479024887085,0.24772104620933533,-0.41155681014060974,-0.5025699138641357,-0.10715606063604355,0.5402142405509949,0.07787331193685532,-0.0679587572813034,0.34258103370666504,-1.0583744049072266,0.873559296131134,-0.020116357132792473,-0.8793994784355164,0.02335686981678009,-0.4337165951728821]},"transition":{"rows":20,"columns":20,"weights":[-1.0527657270431519,-0.16440433263778687,0.010041813366115093,0.1905289590358734,0.41701552271842957,-0.4379924237728119,-0.27890536189079285,-0.16242386400699615,-0.20953918993473053,-0.0916711688041687,-0.6650417447090149,0.353486031293869,0.4566335082054138,-0.03183838352560997,-0.28254634141921997,-0.6820177435874939,0.14825400710105896,0.08743391185998917,-0.13587124645709991,0.13868938386440277,1.4170286655426025,0.30411267280578613,1.9293080568313599,0.27253398299217224,-0.3893246054649353,0.4415298402309418,-0.06271606683731079,-0.2746181786060333,0.34293803572654724,0.03368047624826431,-0.42465001344680786,1.1280606985092163,-0.6698021292686462,-0.16832807660102844,-0.6019355654716492,0.03753211721777916,0.6792523860931396,4.107401371002197,3.7977750301361084,-1.0653634071350098,-0.46387314796447754,-0.4574606120586395,-0.5871105194091797,-0.0652151107788086,-0.787812352180481,-0.4449448585510254,-0.340576708316803,-0.5389640927314758,-0.7561804056167603,1.0044198036193848,-0.427225261926651,-0.534586489200592,-0.26773378252983093,-0.24890074133872986,-0.03637921065092087,-0.7397735714912415,-0.8470857739448547,-0.5703792572021484,-0.30251818895339966,-0.6187208294868469,0.9376058578491211,-0.2803390622138977,1.0548202991485596,-0.06878868490457535,0.7363086938858032,0.5050229430198669,0.47421836853027344,0.6820806860923767,0.1937609165906906,-0.5297881960868835,-0.20115643739700317,1.3605974912643433,0.5220654010772705,0.6107324361801147,0.7738721966743469,0.22904381155967712,0.6687250733375549,2.4244043827056885,2.390167713165283,0.9209227561950684,-0.6135265231132507,-0.42390331625938416,0.08519727736711502,0.09079727530479431,-0.3155803680419922,0.38594499230384827,0.18050700426101685,-0.3255550265312195,-0.11050350219011307,0.1589718610048294,-0.1908515840768814,-0.6249068975448608,-0.09547682851552963,-0.11480681598186493,0.2011323720216751,-0.5377352237701416,-0.1372045874595642,-0.5032650232315063,-0.17790265381336212,-0.3780941069126129,-0.19189029932022095,-1.5557597875595093,0.5237118601799011,-0.2280859798192978,-0.9388545751571655,-0.4450031518936157,-0.25273552536964417,-0.15988582372665405,-0.7284293174743652,-0.49241912364959717,-0.9803957939147949,0.1537015289068222,-0.3963688611984253,0.10307115316390991,-1.2107313871383667,-1.0099033117294312,-0.19661055505275726,-0.2976216971874237,-0.1696741282939911,0.49446791410446167,-0.06338871270418167,0.0313221700489521,-0.2746686637401581,-0.11175673454999924,-0.14982926845550537,-0.05774390324950218,-0.23063158988952637,-0.022330008447170258,-0.611577570438385,-0.6603501439094543,0.05253308266401291,-0.24961037933826447,-0.2531445324420929,-0.08338648080825806,-0.23167657852172852,-0.308687686920166,-0.27717962861061096,-0.31746116280555725,0.01190255768597126,-0.2325490117073059,0.06984824687242508,0.42507120966911316,0.010818228125572205,0.7080199122428894,-0.6389453411102295,-0.3678620457649231,-0.3602398633956909,-0.2633465528488159,0.31917011737823486,-0.24422624707221985,-0.294948011636734,-0.7682833671569824,0.21866214275360107,-0.3428298532962799,0.02552211470901966,0.852910041809082,-1.1295160055160522,-0.9764999151229858,0.028751706704497337,-0.16035006940364838,-0.2428620606660843,0.2107595056295395,0.6366752982139587,-0.013297997415065765,0.957585334777832,-0.40867042541503906,-0.000639233854599297,-0.3243933618068695,0.5690919756889343,-0.18369445204734802,1.7164406776428223,0.0896882563829422,-0.09046781808137894,0.417084664106369,0.21457140147686005,-0.007225146517157555,-0.6597324013710022,-0.1473396271467209,0.2701461911201477,0.7346034049987793,-0.29662302136421204,-0.2466055452823639,-0.469055712223053,-0.36030519008636475,-0.12133141607046127,-0.30039268732070923,-0.28888803720474243,-0.6842634081840515,-1.3303896188735962,-0.9783288240432739,-0.030664756894111633,0.5205018520355225,-0.012569187209010124,0.3073844611644745,-0.29951778054237366,0.26840460300445557,-0.5014452934265137,-0.531367838382721,-0.04194902628660202,-0.36493271589279175,-0.7421129941940308,-0.028994251042604446,-0.4058617949485779,-0.6475149989128113,-0.8300691843032837,-0.028004245832562447,-0.5066899061203003,-0.32867300510406494,-0.3466830253601074,-0.2878192365169525,0.08317776024341583,-0.413845956325531,-0.5125868916511536,-0.32402247190475464,1.6722902059555054,0.43086087703704834,-1.1703157424926758,-0.8133291006088257,0.17496855556964874,-0.5860379338264465,0.10451649129390717,-0.13684602081775665,0.1012711152434349,0.21695610880851746,0.17096976935863495,-0.5637516975402832,-0.058578453958034515,-0.272075355052948,0.09995678812265396,0.41757333278656006,-0.6419280171394348,-0.057736389338970184,0.8295710682868958,-0.16055326163768768,-1.0113458633422852,-1.0566571950912476,-0.39848387241363525,0.2848771810531616,-0.10997730493545532,0.30721017718315125,-1.3692232370376587,0.31130251288414,-0.2909811735153198,-0.0903550460934639,0.14952152967453003,-0.2974332571029663,-0.572621762752533,0.7382187247276306,0.25036928057670593,-1.1274386644363403,-0.005853165872395039,-0.8290963768959045,-0.42676910758018494,-0.3175226151943207,0.37098267674446106,-0.02711903117597103,-1.3465176820755005,-1.0018219947814941,0.120047926902771,1.104776382446289,-0.35214728116989136,-0.34405088424682617,-0.050167232751846313,-0.33175918459892273,-0.3157423138618469,-0.15642166137695312,-0.04203549027442932,-0.28804123401641846,-0.7884671688079834,-0.35344064235687256,-0.32428422570228577,-0.2795167565345764,-0.0917096883058548,-0.3797570466995239,0.06271234154701233,-0.2622455656528473,-0.010893641971051693,-0.07177478820085526,-0.27242401242256165,-0.07711491733789444,0.6761656999588013,-0.38141679763793945,0.08158949017524719,-1.5859349966049194,-0.7377723455429077,0.3095504939556122,0.07885092496871948,0.42531952261924744,0.8326543569564819,0.41691091656684875,0.1787741482257843,1.125614047050476,0.2225181758403778,-0.0023200169671326876,-0.06927081942558289,0.04487927630543709,-0.13226613402366638,-0.9892348647117615,0.016880527138710022,0.031804583966732025,0.5849918127059937,-0.07363948971033096,0.1254730224609375,-0.2885996699333191,0.02700866386294365,0.2699193060398102,0.02744210697710514,0.9165886640548706,0.4543249011039734,0.573397159576416,0.873751699924469,-0.6003517508506775,0.646640956401825,-0.03066142648458481,0.7917823195457458,0.8830427527427673,0.4952574372291565,-0.5820747017860413,-0.13892431557178497,0.20081587135791779,-0.596737802028656,-0.5225491523742676,-0.23242297768592834,0.057327352464199066,-0.692066490650177,-0.501980185508728,-0.29780325293540955,-0.3633959889411926,0.016355350613594055,0.14704588055610657,-0.37519803643226624,-0.851692795753479,-0.42988038063049316,-0.3546159267425537,-1.1921477317810059,-0.12781940400600433,-0.29125648736953735,-0.4388934373855591,-0.1453128457069397,-0.8613654375076294,-0.7463765144348145,-0.3098432421684265,-0.6079343557357788,-0.6103479862213135,0.0014318276662379503,-0.6278116703033447,-0.2178395688533783,-0.49031150341033936,-0.7868597507476807,-0.5773626565933228,-0.4282192885875702,-0.6879784464836121,-0.5407570004463196,-0.4151764214038849,-0.07908220589160919,-1.0811898708343506,0.33806121349334717,-0.6903539299964905,-0.14650502800941467,-1.2075186967849731,-0.02399284392595291,0.0023620352149009705,0.26970571279525757,-0.009646511636674404,-0.3077843487262726,0.5565151572227478,0.15434452891349792,-0.4869336783885956,-0.9007349610328674,-0.4714395999908447,-0.4859200119972229,-0.3141295611858368,0.0500774048268795,-0.22796659171581268,-0.5307201147079468,-0.485836386680603,-0.5270982980728149,-0.3954462707042694,-0.12601588666439056,-0.5436848402023315,-0.1653151661157608,1.0764662027359009,-0.22611773014068604,0.6286861300468445,0.4561067819595337,-0.7925849556922913,-0.5023522973060608,-0.6045685410499573,-0.8507452011108398,-0.37009838223457336,0.020030340179800987,0.3031069338321686,-1.0420435667037964,-0.24100765585899353,0.17739920318126678,0.5382522940635681,-0.765933096408844,-0.45000481605529785,-0.31709516048431396,-0.6500112414360046]},"bias":{"rows":20,"columns":1,"weights":[-0.17705915868282318,-0.868401825428009,-0.04351583495736122,-0.6398781538009644,-0.11920587718486786,-0.41112756729125977,-0.02083975076675415,-0.2920744717121124,0.7145350575447083,0.28871238231658936,-0.2920815646648407,-0.14305080473423004,-0.46662676334381104,-0.2920856475830078,-0.35816144943237305,-0.5348092913627625,0.2739836871623993,-0.5213086605072021,-0.42774251103401184,1.0148184299468994]}},{"weight":{"rows":20,"columns":20,"weights":[-0.048009008169174194,-0.2680356502532959,-0.02807530388236046,-0.32313820719718933,-0.07889389991760254,-0.059688448905944824,0.034347210079431534,-0.03199632838368416,-0.030982207506895065,-0.06246396154165268,0.0016744849272072315,-0.00577941257506609,-0.020425153896212578,-0.06837195158004761,0.07097738236188889,-0.10652390867471695,-0.14724811911582947,-0.1017894372344017,-0.05230669677257538,-0.10512825101613998,-0.9965065121650696,-0.9089611172676086,-0.05937136709690094,-0.7717623710632324,-0.16200394928455353,-0.11723459511995316,0.018021225929260254,-0.44156649708747864,-0.8464531898498535,-0.10689495503902435,-1.0301883220672607,-0.24841168522834778,-0.6151222586631775,-0.34460118412971497,-0.6961032152175903,-1.4079375267028809,0.9629837274551392,-0.18523351848125458,0.03599279746413231,0.25509268045425415,-0.2244623452425003,-0.26947256922721863,-0.06279457360506058,-0.29773762822151184,-0.27550017833709717,-0.07596364617347717,-0.010855261236429214,-0.7637363076210022,-0.5035607814788818,-0.23666399717330933,-0.6997577548027039,-0.1240520104765892,0.04554147645831108,-0.13881200551986694,0.039145950227975845,-0.4041860103607178,-0.1469796746969223,0.0007748819189146161,-0.08704721927642822,-0.03641904890537262,-0.3518827259540558,-0.0685335025191307,-0.34476688504219055,-0.26453590393066406,-0.29955098032951355,-0.3045080006122589,-0.3321446478366852,-0.06913529336452484,-0.05216225981712341,0.015073582530021667,-0.05284956097602844,-0.09585588425397873,-0.22700326144695282,0.007184090092778206,0.06651090830564499,-0.028793519362807274,-0.24010220170021057,-0.34234288334846497,0.006033616606146097,-0.3428085446357727,-0.2447291612625122,0.32862767577171326,-0.36606311798095703,0.3784782588481903,-0.09028710424900055,-0.6267687082290649,-0.37646153569221497,-0.8211439847946167,0.0506867840886116,-0.20891094207763672,-0.922947347164154,-0.7105339169502258,0.5799222588539124,0.029836930334568024,-0.7820711731910706,0.1951577067375183,0.24166196584701538,0.07279146462678909,-0.3679196536540985,-0.617348849773407,-0.6482335925102234,-0.26262426376342773,-0.35429325699806213,-0.04409879818558693,-0.323161244392395,-0.36723610758781433,-0.33983370661735535,-0.24895450472831726,-0.6912577748298645,-0.5474090576171875,-0.12692709267139435,-0.23761796951293945,-0.2757871747016907,-0.3320005536079407,-0.035129062831401825,-0.3316210210323334,-0.31813907623291016,-0.24108728766441345,-0.03594231978058815,-0.2954748570919037,1.2876020669937134,0.3304305076599121,-0.20117774605751038,0.40832480788230896,-0.2617064416408539,-0.25598421692848206,-0.05936495214700699,-0.46208441257476807,-0.6398281455039978,0.24362386763095856,0.24708832800388336,0.54252028465271,0.2514292001724243,-0.2785511910915375,1.2119168043136597,-0.2634405493736267,0.0035896748304367065,-0.41497090458869934,0.18548747897148132,-0.0976211205124855,-0.23339484632015228,-0.17270556092262268,-0.11910109221935272,0.102127306163311,-0.5702704191207886,-0.12138818949460983,-0.2351239025592804,-0.8252225518226624,-0.3318224549293518,-0.6103479862213135,-0.11494942754507065,-0.288959801197052,-0.829644501209259,-0.1999865621328354,0.3248659372329712,1.2104383707046509,-0.3508535623550415,-0.010635221377015114,-0.22759778797626495,-1.2561856508255005,-0.5316601395606995,1.1734598875045776,-0.4388442039489746,0.5391517281532288,0.14350856840610504,-0.18457774817943573,-0.28009918332099915,-1.1901955604553223,-0.39801323413848877,-0.13811996579170227,-0.5699686408042908,-1.0275027751922607,-0.3485729694366455,-0.1673508733510971,0.5628042221069336,0.4976550340652466,-0.7746309041976929,0.49069544672966003,-0.22716975212097168,0.003121468238532543,0.11933429539203644,-0.047264810651540756,-0.09105154126882553,-0.46465128660202026,-0.06498939543962479,-0.03522012382745743,0.10901208966970444,-0.775964081287384,-0.5544255971908569,-0.2495429962873459,-0.2308831512928009,-0.13932959735393524,-0.027039576321840286,-0.18474487960338593,-0.4063103199005127,-0.32604435086250305,-0.47959038615226746,-0.07739096134901047,-0.3349626362323761,0.07522373646497726,0.7106309533119202,1.558132290840149,0.5084191560745239,-0.11388881504535675,-0.21902741491794586,0.6391894221305847,-0.24203547835350037,-0.3375163972377777,0.5684998035430908,0.6269757151603699,0.5944299101829529,-0.7522769570350647,0.18141905963420868,-0.05106966942548752,0.07378293573856354,1.0526803731918335,0.12170778214931488,-0.02782340906560421,0.008307032287120819,-1.1690629720687866,0.4718973636627197,-0.5250436067581177,-0.1406516432762146,-0.2822100520133972,0.6312358379364014,-0.47027888894081116,-0.19623270630836487,-0.6669869422912598,-1.1714788675308228,-0.684560239315033,-0.35349300503730774,-0.096275694668293,-0.0961913913488388,-0.2830072343349457,-0.6393328309059143,0.027527960017323494,1.4170234203338623,0.2434336245059967,-0.38489872217178345,-1.1991522312164307,-1.1538671255111694,-0.08023775368928909,-0.5468679070472717,-1.0379724502563477,-0.20902200043201447,-1.2071266174316406,-0.6136753559112549,0.5111458897590637,-0.42418959736824036,1.0432738065719604,0.29555708169937134,-0.7737569212913513,-0.09236455708742142,-0.14244668185710907,0.41734129190444946,-0.2234443873167038,0.11930333077907562,0.6528802514076233,0.15115492045879364,-0.19517020881175995,-0.2623653709888458,-0.16666433215141296,-0.14462263882160187,-0.30701279640197754,-0.35073861479759216,-0.162489652633667,-0.23651117086410522,-0.042488619685173035,-0.7565063834190369,-0.012231500819325447,-0.061416611075401306,-0.08738311380147934,-0.2558278739452362,-0.15077461302280426,-0.010082402266561985,-0.23951110243797302,-0.313964307308197,-0.23052428662776947,-0.1049804762005806,-0.2742339074611664,-0.3065603971481323,-0.25868189334869385,0.01135488785803318,-0.3139837384223938,-0.2925488352775574,-0.14992652833461761,0.00745332520455122,-0.5142985582351685,-0.6160026788711548,-0.2762550413608551,-0.40091773867607117,-0.18701262772083282,-0.10204850137233734,-0.3008640706539154,-0.3431665897369385,-0.4143221378326416,-0.31951966881752014,-0.11714465916156769,-0.3245067894458771,0.023518307134509087,-0.2021966576576233,0.02417861670255661,-0.2546181082725525,-0.20065435767173767,-0.40626463294029236,-0.3685948848724365,-0.2177853286266327,-0.031006282195448875,-0.22021667659282684,-0.16774214804172516,-0.029896490275859833,-0.2203311324119568,-0.36563724279403687,-0.31592437624931335,0.06197013333439827,-0.023219147697091103,-0.23453210294246674,-0.33607640862464905,-0.17624588310718536,-0.3290742337703705,-0.684798538684845,2.3989217281341553,-0.2822265625,0.4133093059062958,0.061620939522981644,-0.5741888880729675,-0.2642378509044647,-0.12668228149414062,-1.5378649234771729,-0.448673814535141,-0.03222601115703583,0.33638250827789307,-0.9617615342140198,-0.19481080770492554,-0.3352084755897522,-0.4712936580181122,-1.3625510931015015,-0.45040780305862427,-0.2016078531742096,-1.54356849193573,-0.6677366495132446,-0.07220940291881561,0.08840632438659668,-0.9966611862182617,-0.5118196606636047,0.49994564056396484,-0.27604666352272034,-0.500573456287384,1.0821657180786133,0.26042425632476807,0.17969560623168945,0.17727842926979065,-0.30167385935783386,-0.16420289874076843,0.1304951012134552,0.5951126217842102,-0.20302517712116241,-0.21834541857242584,-0.11696633696556091,-0.8953424692153931,0.2470301389694214,0.7823472023010254,-0.6616353988647461,0.8973900675773621,0.6041977405548096,-0.003052139887586236,-0.36524060368537903,-1.1529104709625244,-0.1965339183807373,-0.19348153471946716,-0.9784418344497681,-0.9069638252258301,-0.3602527976036072,-0.34706270694732666,0.04758470878005028,-0.4849202334880829,-0.800625205039978,1.6673834323883057,0.8170118927955627,-0.3434731960296631,-0.6168108582496643,-0.8544876575469971,-0.015139251947402954,-0.13148720562458038,0.8007113933563232,-0.4494425058364868,-0.051551785320043564,-0.04438880458474159,-0.738641619682312,-0.6687362790107727,-0.28298187255859375,-0.4829505681991577,-0.8455230593681335,-0.15766356885433197,0.183579683303833,-0.23539572954177856,-1.5812842845916748,-0.011727292090654373,-0.41041088104248047,0.49396100640296936]},"transition":{"rows":20,"columns":20,"weights":[-0.035149697214365005,-0.06868831813335419,-0.06671065837144852,-0.03276235982775688,-0.31544607877731323,-0.02483661286532879,-0.31840595602989197,-0.035994961857795715,-0.06981068849563599,-0.01321177463978529,-0.08053238689899445,-0.263675332069397,-0.2441806197166443,-0.0381719246506691,-0.0002024089335463941,0.05062871053814888,-0.05169784277677536,-0.029268555343151093,-0.031004657968878746,0.020304376259446144,0.009183250367641449,0.2193862795829773,0.09576214849948883,0.06820894032716751,-1.0924665927886963,-0.28425902128219604,0.18390628695487976,-0.19215035438537598,0.44491803646087646,0.06622875481843948,1.2434793710708618,-0.09865012019872665,-0.32704615592956543,0.2450704425573349,0.09935308992862701,0.3488970696926117,0.6294236779212952,-0.25261008739471436,0.21798543632030487,0.1542481780052185,-0.021348699927330017,0.20166118443012238,0.0058719259686768055,-0.007910599000751972,-0.6059895157814026,-0.21943947672843933,0.22452925145626068,-0.15023916959762573,0.37949422001838684,-0.2634989619255066,-0.10782886296510696,0.19507929682731628,0.272579550743103,0.2925322949886322,-0.28816115856170654,0.23383960127830505,0.08827336877584457,-0.06900951266288757,-0.42866161465644836,-0.07661440223455429,-0.01338980719447136,-0.2956991195678711,-0.2193879634141922,-0.04921435937285423,-0.024068601429462433,0.004479372873902321,-0.24526914954185486,-0.3277333676815033,-0.3013710677623749,-0.2713119089603424,-0.263624370098114,-0.22165316343307495,-0.3193020224571228,-0.24956114590168,-0.21442367136478424,-0.3359176814556122,-0.3368142545223236,-0.2759553790092468,-0.0410376712679863,-0.319379061460495,-0.0016441536135971546,1.6551107168197632,-0.44362276792526245,-0.02302364818751812,-0.20330221951007843,-0.27060914039611816,0.09029679745435715,-0.3502694070339203,-0.029949404299259186,-0.12019392848014832,-0.9050320982933044,-0.0085659334436059,-0.14808395504951477,-0.022505218163132668,-0.597325325012207,-0.011471173726022243,-0.5798346400260925,-0.10180540382862091,0.271938681602478,1.0394219160079956,-0.020928431302309036,0.0298185795545578,0.222614586353302,0.00568237341940403,-0.2962920069694519,-0.044757116585969925,0.0464656800031662,0.018116384744644165,0.066503144800663,-0.042542796581983566,0.06308705359697342,0.010546580888330936,-0.06654801219701767,0.017529165372252464,0.32470929622650146,0.03424028679728508,0.09925404191017151,-0.040899697691202164,-0.04361111298203468,0.3095036745071411,0.030147168785333633,0.6206135749816895,0.058902040123939514,0.0057248021475970745,-0.41857030987739563,-0.13713915646076202,0.2182360589504242,-0.0389087088406086,-0.3725549578666687,0.01302889734506607,1.226348638534546,-0.17933325469493866,0.2886923849582672,0.42789506912231445,-0.07789455354213715,0.3516131043434143,-0.11867378652095795,0.9428179264068604,0.16474297642707825,0.3069888949394226,-0.015194253996014595,-0.3982994556427002,-0.49256739020347595,-0.049947284162044525,-0.6423993110656738,-0.36058005690574646,-0.7500162124633789,-0.5798743963241577,-0.3399662375450134,-0.20634636282920837,-0.18416087329387665,-0.285613089799881,-0.7404439449310303,-0.35917922854423523,-0.3164595067501068,-0.3242371380329132,-0.504102885723114,0.13759420812129974,-0.22860285639762878,-0.14586925506591797,0.028100889176130295,-0.517274022102356,-0.09973771125078201,-0.14224441349506378,0.18323110044002533,-0.05382777377963066,0.3756188452243805,-0.5997346043586731,-1.1124646663665771,-0.12681807577610016,-0.5606586933135986,1.1379103660583496,-1.1207787990570068,-0.34965282678604126,-0.1271129697561264,-0.2324519157409668,-0.5164265632629395,0.2596762776374817,-0.8459219336509705,-0.46597403287887573,-0.026381537318229675,0.21128281950950623,0.12030217051506042,-0.007362650707364082,-0.5281347036361694,-0.12463917583227158,0.06284618377685547,0.37728241086006165,0.08949146419763565,0.09367348253726959,-0.0990149974822998,0.1113165095448494,0.1713951975107193,0.30741244554519653,-0.0059091877192258835,0.3601977527141571,0.13566845655441284,0.33679577708244324,-0.4284922480583191,0.08358121663331985,-0.04147792607545853,-0.6193918585777283,0.07949210703372955,-0.20876501500606537,0.7352985143661499,0.06911510974168777,-0.2384328693151474,-0.020971721038222313,-0.8756268620491028,0.09821177273988724,-1.0738520622253418,0.5300012826919556,-0.13248127698898315,-0.23411232233047485,0.16637761890888214,-0.3302804231643677,-0.39501944184303284,-1.5489157438278198,-1.1018095016479492,0.37464219331741333,-0.07359534502029419,0.09789907932281494,0.07750533521175385,0.29980096220970154,0.016247278079390526,-0.31188032031059265,-0.3920569121837616,0.5270671248435974,0.19741284847259521,0.2654815912246704,0.4781356155872345,0.795413076877594,-0.05119581148028374,0.32928523421287537,0.17403195798397064,0.28439924120903015,0.32509297132492065,0.878083348274231,-0.7691912055015564,0.15758106112480164,-0.06945285946130753,0.3134606182575226,-0.5254384279251099,-0.16649463772773743,0.4322221577167511,0.024995116516947746,-1.3036253452301025,0.4471096694469452,0.584022045135498,-0.23206451535224915,0.04714414104819298,0.6483430862426758,0.09426462650299072,-0.17522123456001282,-0.25451788306236267,-0.23586806654930115,0.08419562131166458,0.2999301850795746,-0.045321669429540634,-0.6289508938789368,-0.07203877717256546,-0.38603609800338745,-0.3064529299736023,-0.263091504573822,0.015654657036066055,-0.0019400307210162282,-0.25326019525527954,-0.3426608443260193,-0.3346182405948639,-0.31759676337242126,-0.22939221560955048,-0.24329113960266113,-0.3631773293018341,-0.22834505140781403,-0.34736940264701843,-0.23431548476219177,-0.29519763588905334,-0.28151974081993103,-0.027820296585559845,-0.3577026128768921,-0.056869328022003174,0.19326147437095642,0.008963396772742271,-0.022047510370612144,-0.5361920595169067,-0.3521767854690552,0.11862251162528992,-0.011917723342776299,0.21608485281467438,-0.046749189496040344,-0.06275657564401627,0.20514234900474548,0.299310564994812,0.3488650321960449,-0.11423587054014206,0.32354024052619934,0.12633514404296875,0.2219972014427185,-0.6015316247940063,0.05727843940258026,0.014134240336716175,-0.24923568964004517,-0.31549766659736633,-0.14954744279384613,-0.030302271246910095,0.07230954617261887,-0.35484790802001953,-0.27041083574295044,-0.2285802960395813,-0.21972841024398804,-0.3728255331516266,-0.27710384130477905,-0.3340795934200287,-0.31012022495269775,-0.26575857400894165,-0.23497366905212402,-0.3475179672241211,-0.2966538667678833,-0.07710790634155273,-0.30423733592033386,0.040690843015909195,0.09403112530708313,-0.09910022467374802,0.007225894369184971,0.44751372933387756,-0.25592488050460815,-0.05956273153424263,0.34052610397338867,0.2223595380783081,0.20938731729984283,-0.025979643687605858,0.06424447149038315,0.9970212578773499,0.2674084007740021,0.07624782621860504,0.32550048828125,0.30527567863464355,-0.4606228172779083,-0.3258148431777954,0.20545965433120728,-0.060659267008304596,-0.28993722796440125,-0.277055561542511,0.06165730580687523,-0.3498207926750183,0.028181763365864754,-1.4521552324295044,-0.49079859256744385,-0.38643878698349,-0.24608062207698822,-0.3308650255203247,-0.24223315715789795,-0.4376491606235504,-0.28531110286712646,-0.15465623140335083,-0.22008457779884338,-0.49142611026763916,-0.33614712953567505,-0.28997504711151123,-0.5862783193588257,0.04980085790157318,0.6281220316886902,-0.2008044272661209,-0.055291738361120224,0.12079343944787979,0.15653873980045319,0.20557254552841187,0.6659966707229614,-0.012081912718713284,-0.691088080406189,-0.33547458052635193,0.6225343346595764,-0.7636780738830566,0.028332792222499847,0.09804831445217133,0.02836647629737854,0.5332611799240112,-0.3473714292049408,-0.7001286149024963,-0.059520624577999115,0.05722572281956673,-0.15822063386440277,0.0924864113330841,0.27200454473495483,-0.1829940229654312,-0.3404874801635742,0.7476996183395386,1.4634002447128296,0.597624659538269,0.23528021574020386,0.4577426314353943,0.7626261115074158,0.7255992889404297,0.3350331783294678,0.268521785736084,0.2738129496574402,0.5593929290771484,0.2245837301015854,0.3616175353527069,-0.04018722474575043]},"bias":{"rows":20,"columns":1,"weights":[0,0.41248950362205505,-0.35410061478614807,0,-0.49563199281692505,-0.2920726239681244,0.20941737294197083,0.03752465546131134,-0.20022684335708618,-0.08010975271463394,-1.0733451843261719,0.3071422278881073,-0.23735898733139038,-0.02065669558942318,-0.10430048406124115,0.032605331391096115,-0.031203562393784523,-0.7705183625221252,0.4064432680606842,-0.3725956678390503]}}],"outputConnector":{"rows":16,"columns":20,"weights":[0.04680708795785904,0.20108874142169952,0.07420536130666733,0.30903568863868713,-1.4353972673416138,-0.5545744895935059,-0.6556757092475891,-1.748660683631897,-0.019854191690683365,0.35915273427963257,0.45559239387512207,-0.28329744935035706,0.10001389682292938,0.30323153734207153,0.20737525820732117,0.23794454336166382,0.9117164611816406,-0.048177625983953476,-0.9152736663818359,0.16451388597488403,0.0031861939933151007,-0.7046525478363037,-0.3095313310623169,-0.21772797405719757,-3.5117640495300293,-0.40875235199928284,-3.5995779037475586,-2.0650322437286377,-0.8929497599601746,-1.3742029666900635,-3.7433953285217285,-0.5831930637359619,-1.4921457767486572,-0.08223041146993637,-0.48291558027267456,-0.09149730950593948,-0.8633344769477844,-2.4088332653045654,-1.1840524673461914,-0.8776514530181885,0.0008997669792734087,0.8578599691390991,-0.24027274549007416,-0.26762738823890686,-1.697869896888733,-0.35836538672447205,1.1314724683761597,-1.7730622291564941,-1.8890858888626099,-0.7246548533439636,-1.5282965898513794,-1.4516059160232544,-2.065484046936035,-0.23317144811153412,-0.40355074405670166,-0.12185832858085632,-0.533275842666626,-0.803836464881897,-0.8779954314231873,-2.8281846046447754,-0.010672763921320438,-0.6274650692939758,-0.23972295224666595,-0.1653013527393341,-0.1773688942193985,0.17034706473350525,-0.7453140616416931,-0.19248616695404053,-0.15246398746967316,-0.732329785823822,-0.9056604504585266,-0.527544379234314,-0.5109140276908875,-0.300927072763443,-0.20838969945907593,-0.3356648087501526,-0.09869281202554703,-0.49453991651535034,-0.2682013511657715,0.050885338336229324,0.00013457024761009961,-0.8321899175643921,0.11718186736106873,-0.19475053250789642,-3.4124913215637207,-0.4572760760784149,-3.7115628719329834,-1.8757072687149048,-0.5035862922668457,-1.262693166732788,-3.678175210952759,-0.7925109267234802,-1.3343498706817627,0.2414720058441162,-0.5641175508499146,0.2743314802646637,-0.6276213526725769,-2.0277130603790283,-1.7506840229034424,-1.1906862258911133,-0.0833052322268486,0.3446752429008484,0.10026866942644119,-0.19962307810783386,-1.0546350479125977,-0.7209957838058472,-0.19661292433738708,-0.1886259764432907,-0.16160963475704193,-0.28253448009490967,-0.8024336695671082,2.0705301761627197,-0.6638246774673462,0.29733335971832275,-0.0016013887943699956,0.2662312984466553,-0.32461169362068176,-0.5275372862815857,-1.1047093868255615,-0.7113111615180969,0.045030925422906876,-0.20142251253128052,-0.009706748649477959,0.19900058209896088,0.021126657724380493,-0.755451500415802,-0.5542445778846741,0.24243390560150146,-0.2723771631717682,0.10154663771390915,-1.7543883323669434,-0.34725916385650635,-0.12473087757825851,0.22063983976840973,-0.17357726395130157,0.32517939805984497,-0.010980897583067417,-0.2482375204563141,-0.9032158255577087,-0.5580967664718628,-0.026787012815475464,-0.5871531963348389,-0.0482819601893425,-0.13418321311473846,-3.533510684967041,-0.34103870391845703,-3.9081435203552246,-2.032944917678833,-1.2074545621871948,-0.32529735565185547,-3.3954038619995117,-1.4902210235595703,-1.7932190895080566,-0.3484828472137451,-0.02284531481564045,-0.3623621463775635,-1.2250176668167114,-1.6580466032028198,-1.3778525590896606,-0.7137352228164673,-0.06856332719326019,-0.07202944159507751,0.06713498383760452,-0.2796705663204193,-2.901909828186035,-0.5321847200393677,-0.118391253054142,-1.9849560260772705,-0.9121079444885254,-0.05586012080311775,0.16734863817691803,0.1213996559381485,-0.573562741279602,-0.3680535554885864,-0.0362451933324337,-0.28967559337615967,-0.09397954493761063,1.8841553926467896,-0.8496063351631165,-0.13095062971115112,0.005158624146133661,-0.18177857995033264,-0.11143597215414047,-0.20358608663082123,-0.5792224407196045,0.2522343397140503,-0.33813992142677307,-0.7676906585693359,0.24996256828308105,-0.2840440571308136,-0.1770734190940857,-0.4818938076496124,-0.8187942504882812,-0.40065479278564453,-0.22428704798221588,-0.3368315100669861,-0.6014545559883118,-1.151779294013977,-0.8076556921005249,-0.17202462255954742,-0.06984061747789383,-1.224950909614563,-0.3050631880760193,-0.25898218154907227,-3.6033904552459717,-0.34420302510261536,-4.131399631500244,-2.124401807785034,-1.1921024322509766,-1.4545611143112183,-3.542405605316162,-1.273525357246399,-1.4702121019363403,-0.3517860174179077,-0.4308850169181824,-0.28264299035072327,-0.9929353594779968,-1.7327467203140259,-1.775836706161499,-0.9125438928604126,0.033500395715236664,-0.2087351679801941,-0.3609534204006195,-0.2752080261707306,-2.2839293479919434,-0.3198274075984955,-1.4701398611068726,2.4536292552948,0.7055960297584534,-1.2491858005523682,-0.07238289713859558,-0.409322053194046,-0.5451110005378723,-0.21307267248630524,-0.4699077606201172,-0.2883068919181824,-0.6990305185317993,0.25746995210647583,-0.8656360507011414,-2.8316290378570557,0.041500821709632874,-0.6806822419166565,-0.28619256615638733,-0.18440566956996918,-1.6845455169677734,0.020475009456276894,0.3535977602005005,-1.010360836982727,0.1725611835718155,-0.7422094941139221,-0.3120518624782562,-0.7090340256690979,-0.8670376539230347,-0.327364444732666,-0.5038713812828064,-0.25245001912117004,-0.011766604147851467,-0.799941897392273,-0.4497574269771576,0.2500278055667877,-0.03579442575573921,0.16311711072921753,0.2104348987340927,0.23176425695419312,-0.9344548583030701,-0.7431083917617798,0.14256970584392548,-0.15354399383068085,0.9105561375617981,0.27839645743370056,-1.0128602981567383,-0.29180389642715454,0.8624495267868042,0.2008969932794571,0.12774598598480225,0.2696196734905243,-0.03400137647986412,-0.7962515354156494,0.22997905313968658,-0.6779917478561401,0.07943392544984818,0.6257950663566589,0.3765161335468292,0.28582483530044556,-1.7040127515792847,-0.32817378640174866,-0.5564513206481934,0.09852717816829681,-0.15659895539283752,0.3953534960746765,-0.34891143441200256,0.3635181486606598,-0.46195080876350403,0.22886580228805542,0.3860087990760803,0.32510632276535034,0.5037451982498169,0.1878567337989807,-0.9358088970184326,0.8912290930747986,-0.03217871114611626,-0.7260404229164124,-0.27106842398643494,-0.26484182476997375,-1.9186046123504639,-0.28497564792633057,-1.6924805641174316,-0.8668166995048523,-0.31274691224098206,-1.2551567554473877,-1.6848487854003906,-0.34452641010284424,-0.9091904163360596,-0.397942453622818,-0.4678201675415039,-0.369307279586792,-0.38791000843048096,-0.8579356670379639,-0.8720859289169312,-0.5589396953582764]},"output":{"rows":16,"columns":1,"weights":[-13.468582153320312,0.4086998403072357,-13.459198951721191,-13.460841178894043,0.4144402742385864,-13.45645523071289,-13.45800495147705,0.42021116614341736,-13.54282283782959,-13.470547676086426,0.4260142743587494,-13.481917381286621,-13.4701566696167,-13.458057403564453,-13.46593952178955,-13.4600830078125]}}