{"type":"LSTM","options":{"inputSize":20,"inputRange":20,"hiddenLayers":[20,20],"outputSize":20,"decayRate":0.999,"smoothEps":1e-8,"regc":0.000001,"clipval":5,"maxPredictionLength":100,"dataFormatter":{"indexTable":{},"characterTable":{},"characters":[],"specialIndexes":[]}},"trainOpts":{"iterations":20000,"errorThresh":0.005,"log":false,"logPeriod":10,"learningRate":0.01,"callbackPeriod":10,"timeout":"Infinity"},"input":{"rows":21,"columns":20,"weights":[0.06915892660617828,0.010571992956101894,0.07726559787988663,0.04592772573232651,0.05023236945271492,-0.02611089125275612,0.0060120210982859135,-0.0003597139730118215,-0.03654198348522186,0.05266181752085686,-0.03386751562356949,0.00048614721163176,-0.05139167979359627,-0.004522746428847313,-0.016443153843283653,0.06065109372138977,-0.06469946354627609,0.00978783518075943,0.06148173287510872,-0.053826652467250824,-0.05205728858709335,-0.030668940395116806,-0.04881179332733154,-0.005376147571951151,0.01925002783536911,-0.05417591705918312,-0.07559876143932343,0.007896664552390575,0.008942890912294388,0.0632544681429863,-0.04708132892847061,-0.06951688975095749,-0.06968003511428833,-0.052417464554309845,0.07715176790952682,-0.05095670744776726,0.04282154142856598,0.06358652561903,0.01024018693715334,0.07357320189476013,-0.006970652379095554,-0.004416046664118767,0.07289940118789673,0.07955214381217957,-0.033763062208890915,-0.04701317846775055,0.05905694141983986,0.041586343199014664,0.06929189711809158,0.07156762480735779,0.02437938190996647,-0.07695221900939941,-0.0489000603556633,0.015205549076199532,-0.052133187651634216,0.0657518282532692,0.06122240424156189,0.022299837321043015,-0.0053453403525054455,0.014761319383978844,-0.03909197449684143,-0.05067966505885124,0.005300634540617466,-0.02957860939204693,-0.0287734717130661,-0.0355076864361763,0.05242926999926567,-0.07493489235639572,-0.07825912535190582,0.04751981422305107,-0.01634003408253193,-0.07473044097423553,0.0055808620527386665,-0.04205916076898575,0.008517898619174957,-0.01752670668065548,0.012615136802196503,-0.06147939711809158,-0.009176102466881275,0.006504381075501442,0.03592154011130333,0.0011364688398316503,0.06867664307355881,-0.0020136248786002398,-0.07487181574106216,0.029589936137199402,0.057700395584106445,0.03533172234892845,0.07834288477897644,0.031949520111083984,-0.07135383039712906,0.05444073677062988,0.004720599390566349,-0.015468726865947247,-0.04262716695666313,0.06031251326203346,0.06078491732478142,0.015029956586658955,0.044805921614170074,0.005818326026201248,0.015548588708043098,-0.03947020694613457,-0.05251814052462578,0.02570521831512451,0.0491471141576767,-0.056320928037166595,-0.024349847808480263,-0.0020001984667032957,0.0524580180644989,0.010082344524562359,0.052376776933670044,-0.037875957787036896,-0.009088479913771152,-0.06860574334859848,-0.07717568427324295,0.009074336849153042,0.07784697413444519,-0.019039897248148918,0.05077948048710823,0.03449195995926857,-0.0124653996899724,-0.006385370623320341,-0.022821612656116486,-0.028879404067993164,-0.03517787531018257,-0.01545504666864872,0.07992320507764816,0.017674332484602928,-0.017251303419470787,-0.012587884441018105,-0.038592830300331116,-0.01635649986565113,0.05770879611372948,-0.0639442726969719,-0.055697422474622726,0.003937830217182636,0.002948763780295849,0.008468466810882092,0.07374878227710724,-0.04054582118988037,0.0777178406715393,0.05678350478410721,-0.019444499164819717,0.07435997575521469,-0.009643499739468098,0.02902241051197052,0.01163614820688963,-0.005755323451012373,-0.027136370539665222,-0.07801183313131332,0.036520157009363174,-0.012829707935452461,0.012542539276182652,0.07171600311994553,0.020294317975640297,-0.053332969546318054,-0.001395531347952783,-0.07658303529024124,-0.04105458781123161,-0.042621154338121414,0.007882281206548214,0.06732794642448425,0.04438664764165878,0.05860693007707596,0.004427883308380842,-0.038757894188165665,-0.0574885755777359,0.0663813129067421,-0.009685768745839596,0.01582040823996067,0.05229227617383003,-0.02507861889898777,-0.05494585633277893,-0.0022663113195449114,-0.04292481392621994,0.0033963921014219522,-0.04082648456096649,-0.050236769020557404,0.06314517557621002,0.06424614042043686,0.07411541044712067,-0.026692384853959084,-0.042753152549266815,-0.06993982940912247,0.0060583618469536304,-0.004070074297487736,0.010346191003918648,-0.056092992424964905,-0.003017887007445097,0.07043147087097168,0.031080249696969986,0.00032060156809166074,-0.049170833081007004,0.04872812703251839,-0.04295359179377556,0.012297255918383598,-0.043840646743774414,0.04611610993742943,-0.02973753772675991,-0.04868380352854729,-0.07422255724668503,0.06864776462316513,-0.05960478261113167,0.04789751023054123,-0.048543017357587814,0.03860604017972946,0.062020864337682724,-0.07226748764514923,0.03008227050304413,0.061226870864629745,-0.0023165096063166857,-0.05071060732007027,0.04516684636473656,0.024368252605199814,0.037418875843286514,-0.030205339193344116,0.05199863761663437,0.04444170743227005,-0.01930600218474865,0.0723821297287941,0.06374760717153549,-0.0018981663743034005,0.04007309675216675,-0.04882853478193283,-0.04699655994772911,-0.06331191956996918,0.03176671266555786,0.06277181953191757,0.0011777085019275546,0.04578814655542374,-0.01998531073331833,-0.038997385650873184,0.03578129783272743,0.01749550551176071,-0.050640009343624115,0.012266485951840878,0.005767120514065027,0.05054488778114319,-0.027263259515166283,0.0313042476773262,0.02252819575369358,0.05082809180021286,0.056051552295684814,0.008534727618098259,-0.01792716607451439,-0.02205195091664791,-0.014458096586167812,0.0018905967008322477,-0.07150816172361374,0.06078182905912399,0.07439609616994858,0.0397169254720211,0.04105101525783539,-0.008992403745651245,0.06446728110313416,-0.023196758702397346,0.02725662849843502,0.047292083501815796,-0.022943472489714622,0.014974670484662056,0.06019012629985809,0.06586596369743347,0.0004926212131977081,-0.058646634221076965,-0.03328564018011093,0.008210351690649986,-0.03658248111605644,-0.06388161331415176,-0.03570383042097092,-0.016770148649811745,0.06466188281774521,0.020893098786473274,-0.06706538796424866,0.031064681708812714,-0.02345537208020687,-0.06793485581874847,-0.05496350675821304,0.014494146220386028,0.039318010210990906,0.008406460285186768,-0.07538871467113495,-0.07648774236440659,-0.06107501685619354,0.010736322961747646,-0.07406628876924515,0.047914452850818634,-0.015558307059109211,-0.019333481788635254,0.009625903330743313,-0.04985323175787926,-0.00156860810238868,-0.03624240681529045,-0.01513318344950676,-0.03161849081516266,0.05503784120082855,0.030443746596574783,0.04725686460733414,-0.005078829824924469,-0.07299210131168365,-0.008747824467718601,0.05379634350538254,0.011469139717519283,-0.02035358175635338,0.024046944454312325,-0.06890491396188736,-0.027728216722607613,-0.030937518924474716,0.05384557321667671,-0.07703042030334473,0.046649686992168427,-0.027806708589196205,-0.05201544240117073,0.05601239576935768,0.05936519801616669,-0.020837586373090744,-0.061061788350343704,-0.009887711144983768,0.034591976553201675,0.02033856138586998,0.031973697245121,-0.006598697043955326,-0.0665883868932724,0.01039054710417986,-0.0017472653416916728,-0.0066903382539749146,-0.01925772801041603,-0.03023715317249298,0.06999652087688446,-0.04158585146069527,0.07523685693740845,0.07025694102048874,-0.0780627653002739,0.020199133083224297,-0.07258930802345276,0.016230950132012367,0.06965422630310059,-0.05422982573509216,0.029370278120040894,0.04983570799231529,-0.01999942772090435,0.03348926827311516,-0.07562816888093948,-0.032982826232910156,-0.051953233778476715,0.07789565622806549,0.03888678550720215,-0.06824969500303268,0.03881027176976204,0.0548270121216774,0.07175639271736145,-0.02131342887878418,-0.06372440606355667,0.07096820324659348,-0.07973268628120422,0.06312564760446548,-0.07559465616941452,-0.001570174703374505,-0.04957517236471176,-0.03199487552046776,0.059406083077192307,-0.007148134056478739,0.046049945056438446,-0.06816937029361725,0.014011598192155361,-0.007371350657194853,0.011623410508036613,0.048793643712997437,0.0013634274946525693,-0.0409587025642395,-0.0061629717238247395,0.02914438024163246,-0.061690106987953186,0.04728289693593979,-0.014769463799893856,-0.05171708017587662,-0.023500649258494377,-0.06404334306716919,0.032295625656843185,0.06688583642244339,-0.010690323077142239,-0.05150644853711128,0.014619804918766022,0.003919930197298527,-0.002412978559732437,0.006751267705112696,0.012349596247076988,0.05991256237030029,-0.05107661336660385,-0.01247391477227211,0.07795527577400208,0.004964811261743307,-0.036611516028642654,-0.07828839123249054,0.019453274086117744,0.004231550265103579,-0.003250877605751157,-0.018738048151135445,-0.0033313296735286713,-0.008764888159930706,0.04760831594467163,0.033524151891469955,-0.019722402095794678,0.05837968736886978,-0.04795580729842186,-0.018535736948251724,0.059017688035964966,-0.05499466881155968,0.02520296722650528,0.06891488283872604,-0.011359916999936104,0.022523920983076096,0.06585770100355148,-0.0565471388399601,0.05780206620693207,-0.051433682441711426,-0.0023253525141626596,0.03592225909233093,-0.00912743154913187,0.05236246436834335,0.007880271412432194]},"hiddenLayers":[{"inputMatrix":{"rows":20,"columns":20,"weights":[-0.05209425836801529,0.0033225086517632008,0.06211655214428902,-0.027415290474891663,-0.07079777121543884,-0.058512259274721146,-0.034750986844301224,0.04593484103679657,-0.05825264751911163,-0.06701099127531052,0.045824602246284485,-0.02670741081237793,-0.004964849445968866,-0.0050139171071350574,-0.054044608026742935,-0.02789720520377159,-0.01990777812898159,0.00802875030785799,-0.03712441027164459,-0.052443429827690125,0.07385962456464767,0.06667156517505646,0.03715388476848602,-0.06657546758651733,0.03083139657974243,-0.06240902468562126,0.04820120707154274,0.002908922964707017,-0.012749970890581608,0.033723052591085434,-0.0075132050551474094,0.03873787820339203,-0.03771025687456131,0.0026228041388094425,0.03675480931997299,-0.019733192399144173,0.014529100619256496,0.025389449670910835,-0.07761882245540619,0.07763134688138962,-0.07888423651456833,-0.06993873417377472,-0.04841294884681702,0.05799388885498047,-0.006063221022486687,-0.018315166234970093,0.07200704514980316,-0.04366900026798248,0.05125686898827553,-0.05801355838775635,0.02270224317908287,-0.02603340521454811,0.04951191321015358,0.03277206793427467,0.04372571408748627,0.07395195960998535,0.04530690982937813,-0.016101162880659103,0.027219010517001152,0.04598188400268555,0.05993369594216347,0.03641786053776741,-0.071287602186203,0.030047092586755753,-0.00998823530972004,0.012509962543845177,0.026860376819968224,0.07627757638692856,0.033539846539497375,0.07654630392789841,0.07915763556957245,-0.06358493864536285,0.07209276407957077,-0.026788219809532166,0.02445310540497303,-0.034540656954050064,0.0439385250210762,-0.050256699323654175,0.022823834791779518,0.054624658077955246,0.020979972556233406,0.0341549813747406,-0.0063749621622264385,-0.017344176769256592,0.01012442633509636,0.02462620474398136,0.06991725414991379,0.06987103819847107,0.032761894166469574,-0.03455842658877373,0.047348275780677795,0.018321935087442398,-0.056094441562891006,0.07982657104730606,-0.02340279519557953,-0.014100726693868637,0.05569934844970703,-0.06665665656328201,0.015525213442742825,0.041736800223588943,0.03297044709324837,-0.03713845834136009,-0.0379226915538311,0.047513023018836975,0.008937682956457138,-0.029844682663679123,-0.04212518781423569,-0.008100774139165878,0.07048261165618896,-0.07491835206747055,0.028942516073584557,-0.060144029557704926,-0.06094750016927719,-0.031071217730641365,-0.02720802277326584,-0.056782737374305725,-0.006615161430090666,0.012028079479932785,-0.06677578389644623,0.01382612343877554,-0.024772265926003456,0.019462209194898605,-0.00021982722682878375,-0.000610969087574631,-0.00024331099120900035,0.0475008562207222,-0.029360124841332436,-0.036124251782894135,0.061764106154441833,0.01112328004091978,0.000742014788556844,-0.07477615028619766,0.008730831556022167,0.016669467091560364,-0.07286787033081055,0.04094835743308067,-0.05360126867890358,0.05736093968153,0.04664164036512375,0.07177267223596573,-0.027849704027175903,0.02095571532845497,0.03146257996559143,-0.03738662227988243,-0.011791789904236794,0.010523409582674503,0.0401049479842186,0.03308868035674095,-0.0548257939517498,-0.03751278296113014,0.06994152814149857,-0.07902754098176956,-0.024711137637495995,-0.013524452224373817,0.05010455846786499,0.06735697388648987,-0.012022433802485466,0.07710135728120804,-0.039635851979255676,0.031825125217437744,-0.03274401277303696,0.019789569079875946,0.0781686082482338,0.024983515962958336,0.015636306256055832,0.008333009667694569,0.028584226965904236,-0.05484168976545334,0.07363860309123993,-0.0758725181221962,-0.036292750388383865,-0.04767119511961937,-0.025339754298329353,0.04308466985821724,-0.041737716645002365,-0.06802453845739365,-0.014831442385911942,-0.06830058246850967,0.013729074969887733,0.015250207856297493,0.03409625589847565,-0.0050085000693798065,-0.003795095020905137,0.07441358268260956,0.0536358505487442,-0.058448564261198044,-0.05744596943259239,-0.07324586808681488,0.012920641340315342,0.030436500906944275,0.0009105996578000486,0.056584738194942474,0.0677865743637085,-0.025737488642334938,0.012384551577270031,0.02218209020793438,0.062402207404375076,0.07616334408521652,0.01577172242105007,0.07782256603240967,0.031612128019332886,0.05566922202706337,-0.02955150231719017,-0.06393000483512878,-0.04626389592885971,0.023332778364419937,0.027516542002558708,-0.05128686502575874,0.025154193863272667,-0.06917683780193329,-0.01786094903945923,-0.013617475517094135,0.008479414507746696,0.05416986718773842,0.03963708505034447,-0.04818684980273247,-0.07911906391382217,0.072819784283638,-0.04245573282241821,0.03990117087960243,-0.07133454829454422,-0.054061584174633026,-0.0014836435439065099,0.06425145268440247,-0.0060312096029520035,-0.06258083879947662,-0.02799563854932785,0.0070782615803182125,-0.05218980833888054,0.008624614216387272,-0.0031302289571613073,-0.0038311851676553488,-0.04698636755347252,0.020095117390155792,-0.007068598177284002,-0.029979772865772247,-0.0013982134405523539,0.03700358420610428,-0.0010315566323697567,-0.0007412007544189692,0.06389322131872177,0.02766062133014202,-0.018725164234638214,-0.054360583424568176,-0.028099725022912025,-0.013921183533966541,-0.021654406562447548,0.030564185231924057,0.024236131459474564,-0.025306163355708122,0.038884226232767105,-0.04197649285197258,0.028238434344530106,0.005886365659534931,0.035632144659757614,-0.01361151970922947,-0.06770464777946472,-0.05209166929125786,0.03050120547413826,-0.06926796585321426,-0.01299955788999796,-0.007951067760586739,-0.018498487770557404,0.04321025684475899,0.04331082105636597,0.05509239062666893,-0.044996924698352814,-0.03865887224674225,-0.030858874320983887,-0.06634744256734848,-0.0771060660481453,0.03714417666196823,0.07731892168521881,0.0533977635204792,0.036050256341695786,-0.01743425242602825,0.002835299354046583,-0.07678062468767166,0.07865685224533081,0.0071676913648843765,0.045163415372371674,-0.05635571852326393,-0.03811629116535187,-0.06335756927728653,0.012735553085803986,0.009378047659993172,-0.06334474682807922,0.0011529175098985434,-0.03485071659088135,-0.03236786648631096,0.06294156610965729,0.07372473180294037,0.07636577636003494,-0.07332061976194382,0.020649056881666183,-0.04184872284531593,0.05740702152252197,-0.04096060246229172,-0.009194115176796913,-0.059381935745477676,-0.007437321823090315,0.04603652283549309,0.034024812281131744,0.038007866591215134,0.007032194174826145,-0.06748172640800476,-0.07984263449907303,0.0443280003964901,0.04353904724121094,-0.07166484743356705,0.0005131584475748241,-0.06899882107973099,0.010279560461640358,-0.04179896041750908,0.012213063426315784,0.04163121059536934,-0.021636199206113815,-0.00020384071103762835,-0.04424035921692848,0.05701432377099991,0.04512840509414673,-0.00541703449562192,0.04659409448504448,0.005225433502346277,-0.04527052864432335,0.0006851624348200858,-0.01872667670249939,-0.05151024088263512,-0.051169730722904205,0.05659099295735359,0.004232186358422041,0.01845395565032959,-0.0652121901512146,0.030879369005560875,-0.037337612360715866,0.020772673189640045,-0.05361389368772507,0.06851036846637726,0.02429012954235077,0.0020138698164373636,0.04929790273308754,0.039349403232336044,-0.009521045722067356,0.00996679812669754,-0.014928825199604034,0.004258983302861452,-0.041866838932037354,-0.05739670619368553,0.028358779847621918,0.06420976668596268,0.01859578862786293,-0.059651196002960205,0.03876560181379318,-0.065855473279953,-0.04859108850359917,-0.0719086229801178,-0.027713900431990623,0.06334535032510757,-0.03232988342642784,-0.018308930099010468,-0.04137448966503143,-0.004410664550960064,0.06967440992593765,0.015395261347293854,0.05767684429883957,0.07293059676885605,0.06932944804430008,-0.018689356744289398,0.04864618927240372,-0.005728572141379118,0.021104661747813225,0.06029146537184715,-0.07355508208274841,0.03639599308371544,0.032905444502830505,-0.04916514828801155,-0.043647389858961105,-0.05340190604329109,0.07402238994836807,-0.015617662109434605,-0.04127657413482666,0.0077030532993376255,-0.020245153456926346,0.009495589882135391,-0.0787140503525734,-0.010782472789287567,0.05678790435194969,0.04657425731420517,0.025032877922058105,-0.03568578511476517,0.05395170673727989,0.04281069338321686,-0.03224845230579376,0.017163068056106567,0.022203397005796432,-0.006604074500501156,-0.026068583130836487,-0.016320357099175453,0.019385026767849922,0.0581512488424778]},"inputHidden":{"rows":20,"columns":20,"weights":[-0.013755490072071552,0.06969313323497772,-0.018756525591015816,-0.054547298699617386,-0.03916667774319649,-0.06116408482193947,-0.05670945346355438,-0.05106740817427635,-0.04285186529159546,0.07918184250593185,0.0075922259129583836,0.05806710571050644,-0.020185571163892746,0.0290455911308527,0.07737705111503601,-0.043562233448028564,-0.03177925944328308,-0.05385997146368027,0.032389085739851,-0.04545588046312332,-0.022325746715068817,0.035151973366737366,-0.022960076108574867,-0.022998949512839317,0.03798200190067291,0.04081670939922333,0.025711800903081894,0.02778703160583973,-0.010592777281999588,0.07345238327980042,0.038846760988235474,-0.009028296917676926,0.03080233559012413,-0.07357698678970337,0.01081293448805809,0.06466653198003769,-0.057682525366544724,0.008080526255071163,0.038642846047878265,0.03440810367465019,0.008007822558283806,-0.03344310075044632,0.01794733665883541,0.04667187109589577,0.02171674557030201,0.06843403726816177,0.05215197801589966,0.061935994774103165,-0.003934301435947418,0.06759564578533173,0.059758689254522324,-0.03683585301041603,0.06445189565420151,0.005437053274363279,0.01590038277208805,-0.0636562705039978,0.07491778582334518,0.05393823981285095,0.002611134434118867,-0.07487111538648605,-0.05248156189918518,0.050441645085811615,-0.07138779014348984,0.04862350597977638,-0.03818595036864281,-0.032616373151540756,-0.06895280629396439,-0.05360177159309387,0.012706922367215157,-0.053182993084192276,-0.007090477272868156,-0.056635886430740356,-0.004206616431474686,0.027376899495720863,0.05893413722515106,0.024545781314373016,0.03261091932654381,-0.06994234025478363,0.019685253500938416,-0.0021799097303301096,-0.07836088538169861,-0.005767420865595341,-0.06546496599912643,0.02115098387002945,-0.029917337000370026,-0.00670262286439538,0.05991622805595398,-0.03587888926267624,0.06981103122234344,0.010472740978002548,-0.016610372811555862,0.01058743242174387,-0.06574320048093796,0.05516611784696579,0.06655926257371902,-0.04932912811636925,0.07310560345649719,-0.00685436837375164,-0.07929850369691849,0.07933365553617477,0.02269783616065979,-0.059114694595336914,-0.0746956318616867,-0.023875189945101738,0.04658881574869156,0.04962915927171707,0.06323211640119553,0.07182342559099197,-0.07258739322423935,-0.07359827309846878,0.048647038638591766,-0.06271497905254364,0.07995138317346573,0.0682331845164299,0.016856929287314415,0.036312270909547806,-0.03936789557337761,-0.07564960420131683,-0.03279371187090874,-0.05589486286044121,-0.043028976768255234,-0.009824191220104694,-0.03727832809090614,0.0784836933016777,-0.052515991032123566,0.03186531737446785,-0.03967081382870674,0.030627312138676643,-0.005115937907248735,-0.0009015708928927779,-0.05878070369362831,0.0328143872320652,0.06104937568306923,0.07512606680393219,-0.03771676495671272,0.048034582287073135,-0.0005423557595349848,0.02491598203778267,0.06896309554576874,-0.005012297537177801,0.05405987799167633,-0.05047803744673729,0.0077904025092720985,-0.04994938522577286,-0.028815843164920807,-0.07684674113988876,-0.050005845725536346,-0.017853330820798874,0.009272780269384384,-0.0553700290620327,-0.05370175465941429,-0.03746463358402252,-0.06561970710754395,-0.07043465971946716,-0.07650423049926758,-0.009025469422340393,0.030169272795319557,0.0031818060670048,0.023016368970274925,-0.006555970758199692,0.07801251113414764,0.009414521045982838,0.025679586455225945,0.0770217701792717,-0.06350160390138626,0.012601174414157867,-0.006813850719481707,-0.03931841626763344,0.027738239616155624,-0.00508229061961174,-0.02167748473584652,-0.009321453981101513,-0.07275573164224625,0.04890530928969383,-0.02090349979698658,-0.014745808206498623,-0.025043442845344543,0.06998340040445328,-0.014798701740801334,-0.0014414601027965546,-0.02529161050915718,0.047876469790935516,-0.018160801380872726,-0.026023540645837784,0.06320758163928986,-0.009814057499170303,-0.01720358058810234,0.055225271731615067,-0.03410709276795387,-0.010952816344797611,0.010999158956110477,-0.03476530686020851,-0.03380793333053589,0.04018407315015793,0.05699539929628372,-0.06548206508159637,0.048082925379276276,-0.007874075323343277,0.011929878033697605,-0.009384735487401485,0.0455566830933094,-0.07834522426128387,-0.018577734008431435,0.009801062755286694,-0.06623043864965439,0.005473725497722626,0.041277606040239334,0.06267543137073517,0.026490947231650352,-0.04256032034754753,-0.016598759219050407,0.0064773717895150185,-0.07860017567873001,0.07693005353212357,-0.03829098120331764,0.004270901437848806,0.07471726089715958,-0.06720837950706482,-0.02305874414741993,-0.05340665206313133,0.07339408248662949,-0.04256189614534378,0.06180925667285919,-0.028500260785222054,-0.06304022669792175,-0.04853621497750282,-0.010113024152815342,0.07241420447826385,0.01868125982582569,-0.05553712323307991,-0.05797598510980606,0.013696948066353798,0.030599461868405342,-0.055293865501880646,-0.0482962466776371,-0.027101511135697365,-0.03129897639155388,0.03583810105919838,0.07755094766616821,0.019501473754644394,-0.07262395322322845,0.07702084630727768,0.06411013007164001,-0.04030461981892586,0.0742669552564621,0.05762409418821335,0.02322196215391159,-0.028379665687680244,0.043043941259384155,0.05827934667468071,0.05199262127280235,0.04396547004580498,-0.024688638746738434,-0.05591421574354172,-0.05087394267320633,0.03275033459067345,-0.014744817279279232,-0.04147743433713913,0.05852276831865311,0.012804707512259483,0.010465122759342194,-0.0699436143040657,-0.03205664083361626,0.0720781460404396,-0.06053513288497925,-0.04583317041397095,0.03375781327486038,0.0756346806883812,0.05662843585014343,-0.044477760791778564,0.03949539735913277,-0.02189718559384346,-0.03064955398440361,0.07542354613542557,0.029027806594967842,-0.0016834036214277148,0.051140327006578445,-0.009574607014656067,-0.05418776348233223,0.048849936574697495,0.03889000788331032,-0.028223415836691856,-0.03825371339917183,-0.06204849109053612,-0.0067167822271585464,0.008270585909485817,0.02349543385207653,0.007821591570973396,0.07665689289569855,-0.04918328672647476,-0.05283632501959801,0.06604429334402084,0.021649692207574844,-0.07496850192546844,0.07651430368423462,0.037719275802373886,0.04960513114929199,-0.021001411601901054,-0.056123413145542145,0.04620591551065445,-0.0030009159818291664,-0.059869032353162766,-0.031880225986242294,-0.01215345412492752,0.06307977437973022,0.03081415593624115,0.02888418175280094,0.029782595112919807,-0.017628375440835953,-0.05740371719002724,0.05842908099293709,-0.047614939510822296,0.06617900729179382,-0.029169758781790733,0.04361863061785698,-0.061539582908153534,-0.021333685144782066,-0.017885643988847733,0.004713377449661493,-0.0021302872337400913,-0.06269735842943192,-0.07604943215847015,0.04435497149825096,0.07423683255910873,-0.046224918216466904,0.01214687991887331,-0.005173915531486273,-0.018684225156903267,0.07130472362041473,0.015500927343964577,0.049374669790267944,-0.03856157138943672,0.07835392653942108,0.02323918044567108,0.06656859815120697,-0.07958930730819702,-0.06241216883063316,0.05739764869213104,-0.05671943724155426,0.021800562739372253,-0.03786423057317734,-0.048567526042461395,-0.07895010709762573,-0.0027734129689633846,0.05124152451753616,-0.068034827709198,0.060153886675834656,-0.0436495803296566,0.06385904550552368,-0.017898965626955032,0.04407189041376114,0.013937915675342083,0.06867612153291702,0.009947222657501698,-0.02167266421020031,-0.009109885431826115,0.022019797936081886,-0.0755825862288475,-0.014526352286338806,-0.013905753381550312,-0.010160685516893864,0.025794442743062973,0.07762167602777481,-0.04726004973053932,0.0003307396837044507,0.025169869884848595,-0.005324566271156073,-0.06618379801511765,-0.07695258408784866,0.05171830579638481,0.0010328167118132114,-0.0047564092092216015,-0.05766245350241661,-0.07694884389638901,-0.035162538290023804,-0.07865291088819504,-0.07586713135242462,0.039600919932127,0.06040798872709274,0.057471610605716705,-0.052837200462818146,0.025348441675305367,0.039637111127376556,0.02893611416220665,0.015647802501916885,-0.053862836211919785,-0.035912055522203445,0.06343399733304977,0.038035567849874496,0.013732429593801498,0.014952407218515873,0.03989386931061745,0.013970980420708656,-0.05262540653347969,0.022936765104532242,0.01328273955732584,0.03771471604704857,0.026073334738612175,0.07102590054273605,-0.06939046084880829]},"inputBias":{"rows":20,"columns":1,"weights":[0,0,0,0,0,0,0,0,0,0,0,0,0,0,0,0,0,0,0,0]},"forgetMatrix":{"rows":20,"columns":20,"weights":[0.037401359528303146,0.0710371881723404,0.04964530095458031,-0.029945097863674164,0.005011693574488163,-0.058855630457401276,0.014605889096856117,-0.0623033381998539,-0.01639852672815323,0.038195569068193436,-0.0035907814744859934,0.04011383280158043,-0.07251331955194473,0.03190777823328972,0.005147136282175779,-0.02614033780992031,-0.03865092247724533,-0.06509383767843246,-0.026736794039607048,-0.025479277595877647,-0.06625737994909286,-0.0514998733997345,-0.005259736906737089,0.018345676362514496,0.0004198725800961256,-0.07383472472429276,-0.03172514587640762,0.07907497137784958,0.047247324138879776,-0.06029929965734482,0.04776746779680252,-0.03462536633014679,0.04721186310052872,0.04134592413902283,-0.07697475701570511,-0.0032580236438661814,-0.057581380009651184,-0.013311801478266716,-0.02788686566054821,0.022457744926214218,-0.022425714880228043,-0.002040452789515257,0.07483386993408203,-0.005368995945900679,0.05409935489296913,0.012230705469846725,0.010215984657406807,0.03207908198237419,0.06351493299007416,-0.02473628893494606,-0.06780949234962463,-0.06469535082578659,0.07975688576698303,0.06696946918964386,0.016659842804074287,-0.07080023735761642,0.06089524179697037,0.07546363770961761,0.011294318363070488,-0.07139334827661514,0.05499802529811859,0.00442862743511796,-0.04171221703290939,0.030512753874063492,0.001285134581848979,-0.04895646870136261,0.06617876887321472,-0.05766427889466286,-0.0585213303565979,-0.0035844328813254833,0.05819462984800339,-0.00023906999558676034,-0.040563419461250305,0.0672106072306633,0.07131300121545792,-0.06887603551149368,0.007039802614599466,0.015645122155547142,0.049635712057352066,0.006989209447056055,0.006439377088099718,0.035427697002887726,-0.05074605718255043,-0.0472462922334671,-0.02784530073404312,0.0323515459895134,-0.0460369698703289,-0.07827633619308472,0.04511905461549759,0.051695480942726135,-0.03117476776242256,0.07824936509132385,-0.0468447208404541,0.01415955275297165,-0.00289562507532537,0.007709262426942587,-0.054687388241291046,-0.05935990437865257,0.0030067358165979385,-0.06441321223974228,-0.009431668557226658,0.058717455714941025,-0.05983218178153038,-0.02885359525680542,0.009969959035515785,0.058009032160043716,0.07442555576562881,-0.04001723974943161,0.02966313250362873,-0.026137279346585274,0.029150644317269325,-0.02250729314982891,0.028116613626480103,0.06728897243738174,-0.03595371171832085,0.06530462950468063,0.006026862189173698,-0.02799752727150917,-0.07394447922706604,-0.037173669785261154,-0.019917352125048637,0.06961293518543243,-0.036925606429576874,0.03960084915161133,-0.029657181352376938,0.06043703109025955,-0.017293494194746017,-0.02776220627129078,-0.004566492047160864,-0.009879047982394695,0.03246127441525459,0.06796787679195404,-0.007373959291726351,0.00620494969189167,-0.0752880647778511,0.07037083804607391,-0.0428132489323616,0.07786346971988678,0.023909594863653183,0.015249629504978657,0.044526729732751846,-0.02987491525709629,0.016920700669288635,-0.03972906991839409,-0.010087495669722557,-0.004351342562586069,-0.04059026390314102,0.035678233951330185,0.025367148220539093,0.06433361023664474,-0.03330574184656143,0.05735281854867935,-0.01664474606513977,-0.050682056695222855,0.020429303869605064,-0.00008865463314577937,0.01998722553253174,-0.05017612874507904,-0.06874661147594452,0.05613326653838158,-0.06679972261190414,0.06379079818725586,-0.04081222787499428,-0.04327293485403061,0.022343095391988754,-0.05676449462771416,0.04886181280016899,-0.07255995273590088,0.05524017661809921,-0.06266964226961136,0.06197027489542961,-0.005642556119710207,-0.07537472248077393,0.04730941355228424,0.032284993678331375,-0.028305470943450928,0.04115120321512222,0.010061436332762241,0.043797485530376434,0.045239537954330444,-0.05192815512418747,-0.042795680463314056,0.01202082633972168,-0.07945351302623749,-0.06898858398199081,0.012077227234840393,0.01207815296947956,0.049282051622867584,-0.06243877857923508,-0.06655971705913544,-0.055041540414094925,0.0021717585623264313,0.01810429058969021,-0.05542626976966858,0.0180105809122324,0.07330801337957382,-0.07823176681995392,-0.042695507407188416,0.0318852923810482,-0.03254023194313049,0.03646387532353401,-0.0737093910574913,-0.02116529643535614,0.03899339586496353,0.025373825803399086,-0.07404077053070068,-0.04906905069947243,-0.06215484440326691,-0.067921482026577,0.008716650307178497,-0.05269749090075493,-0.05214571952819824,0.04516969248652458,0.060569267719984055,-0.021224012598395348,0.03822505846619606,-0.029254557564854622,0.03972592204809189,0.07968957722187042,0.035134486854076385,-0.06255660206079483,-0.05099295452237129,0.012252362444996834,-0.011975768953561783,-0.05572393536567688,0.0390261635184288,0.03390522301197052,-0.04735087975859642,0.03557140752673149,-0.045973267406225204,-0.06479153782129288,-0.0746590793132782,-0.02728637121617794,0.021742744371294975,0.07002013921737671,-0.06900046765804291,0.036790452897548676,-0.015749018639326096,0.014716153964400291,-0.012079952284693718,-0.04856199771165848,0.009287124499678612,-0.021596301347017288,0.07064689695835114,-0.057360295206308365,0.0179815161973238,-0.02835952863097191,-0.0032569749746471643,0.07786168903112411,-0.07564809173345566,-0.00105019542388618,0.02506549470126629,0.04622306674718857,0.07803778350353241,0.0643535777926445,0.035289812833070755,0.041755400598049164,-0.045407023280858994,0.06235750392079353,0.04818866774439812,-0.006240342278033495,0.002905335510149598,0.02109324187040329,-0.04797422140836716,-0.0770987942814827,0.06244809925556183,-0.06716202199459076,-0.002564400667324662,0.04615573212504387,-0.031093083322048187,-0.005821648519486189,-0.050123460590839386,0.03224017843604088,-0.039671383798122406,-0.02263895608484745,-0.02588874287903309,-0.04664529487490654,0.06362633407115936,0.05768970400094986,-0.020530598238110542,-0.022857973352074623,-0.019405318424105644,-0.03642718493938446,0.0026892018504440784,-0.07839801907539368,-0.055918071419000626,0.011024107225239277,0.07375801354646683,-0.05919921398162842,0.008961398154497147,0.021860351786017418,0.06706605851650238,-0.06088637560606003,-0.04804638400673866,0.0019818434957414865,-0.04823056235909462,-0.0728263109922409,0.02926955372095108,0.04729601740837097,0.0032943892292678356,-0.05810336396098137,0.05483214184641838,0.011920955963432789,0.07068628072738647,0.059468112885951996,0.0410117506980896,0.047873303294181824,-0.042897943407297134,-0.06250885128974915,0.051414716988801956,0.0708836019039154,-0.07719756662845612,-0.056660331785678864,0.05996839329600334,-0.017257755622267723,0.04469176381826401,0.020412374287843704,0.04139581695199013,0.04743203520774841,-0.07631580531597137,0.04975372180342674,-0.02991499751806259,-0.05141081288456917,-0.03317100182175636,-0.04999928921461105,-0.05861649662256241,-0.014985399320721626,0.07166925072669983,-0.03848116099834442,0.057605065405368805,-0.07478024065494537,-0.00698914285749197,0.04308944195508957,0.03715532273054123,0.011463144794106483,0.0055466582998633385,-0.07795464992523193,0.07853134721517563,0.05706808343529701,0.05753215774893761,-0.024588463827967644,0.011702501215040684,0.03960852697491646,-0.04662307724356651,0.004082222934812307,-0.04063691198825836,0.06199490278959274,-0.04555729031562805,-0.04513494670391083,-0.014091388322412968,0.044031232595443726,-0.01298618782311678,0.012786831706762314,0.06806394457817078,-0.016425035893917084,-0.0022961243521422148,-0.01792365126311779,-0.002266018185764551,-0.05970662459731102,-0.06713786721229553,-0.027623245492577553,-0.05129183828830719,0.039683107286691666,-0.019324112683534622,0.035077884793281555,-0.026864957064390182,0.016782693564891815,0.0014037953224033117,0.03282864764332771,-0.0669173002243042,0.016699718311429024,-0.06389870494604111,-0.07128992676734924,-0.036830343306064606,0.025388218462467194,0.017644718289375305,0.019051698967814445,0.07773376256227493,-0.012693061493337154,-0.007295839488506317,-0.07255087047815323,-0.06261467188596725,0.07016117125749588,-0.04131140187382698,-0.060896553099155426,0.06796426326036453,0.048663411289453506,0.07822572439908981,-0.014746812172234058,-0.011188488453626633,0.0760585367679596,0.0523168221116066,0.044449977576732635,-0.005377132445573807,0.04946868121623993,-0.0406465046107769,0.003284195903688669,-0.02917434833943844,0.001424948452040553,-0.0077758668921887875]},"forgetHidden":{"rows":20,"columns":20,"weights":[0.041550926864147186,0.006231578998267651,-0.06964389234781265,0.056967493146657944,-0.06023779138922691,-0.007811704184859991,0.030557973310351372,-0.023292778059840202,0.02801624871790409,-0.003428372321650386,-0.02872309647500515,-0.015533307567238808,0.044850196689367294,-0.07346870750188828,0.01476797740906477,0.018154487013816833,0.04268626868724823,-0.006049667485058308,0.01352714840322733,0.008433789014816284,0.014135581441223621,-0.045575596392154694,0.06560824066400528,-0.05167768523097038,0.07069000601768494,-0.05298828333616257,0.04836847633123398,-0.012517403811216354,0.006139110308140516,-0.0463549830019474,0.026207754388451576,-0.07424504309892654,0.048949841409921646,-0.06053680554032326,0.06621281057596207,0.07877662777900696,0.012409544549882412,-0.0791952982544899,0.03398824855685234,0.0031431426759809256,-0.04651752486824989,0.05438576638698578,0.019972315058112144,-0.012099568732082844,-0.014425250701606274,-0.04072006419301033,0.00383967999368906,0.062186095863580704,0.035377442836761475,0.0697241947054863,-0.06131120026111603,0.007275952957570553,0.053569190204143524,-0.059828367084264755,-0.07831134647130966,0.049727458506822586,0.07751640677452087,0.029579421505331993,-0.0618499331176281,0.07114719599485397,0.02028217911720276,0.02560443803668022,-0.05126288905739784,-0.07592099159955978,0.010280413553118706,0.006623194087296724,0.030620548874139786,0.007931799627840519,-0.016115907579660416,0.05366892367601395,0.04661354795098305,0.06043380871415138,0.035966139286756516,-0.026070574298501015,-0.0022411998361349106,-0.0703965574502945,-0.027821214869618416,-0.06944243609905243,0.07351823151111603,-0.008835533633828163,-0.05578573793172836,-0.06650272011756897,-0.050087716430425644,0.07373416423797607,0.03250916302204132,0.04660693183541298,-0.017439477145671844,0.04026244208216667,-0.07125572860240936,-0.03242237865924835,-0.06572161614894867,0.037372149527072906,0.032704681158065796,-0.05342918261885643,-0.07268662005662918,-0.02515595592558384,0.033528611063957214,-0.030405012890696526,0.029988467693328857,-0.0459754578769207,-0.07916584610939026,0.036447688937187195,-0.007052368018776178,0.04788629710674286,0.03521663695573807,0.011732252314686775,0.041010282933712006,0.058669157326221466,0.03984785079956055,0.04006116837263107,-0.0022079083137214184,-0.06832348555326462,-0.03152093663811684,0.06685666739940643,0.0017652730457484722,-0.0488845556974411,0.020584603771567345,-0.03529083728790283,-0.00941031239926815,-0.052857931703329086,-0.07464080303907394,-0.03465300798416138,-0.06813619285821915,-0.03205591067671776,0.030137289315462112,-0.0032162948045879602,-0.051942501217126846,0.04944384843111038,-0.04826454445719719,0.038206275552511215,0.007763214409351349,-0.05755094438791275,-0.03492170572280884,0.045618508011102676,0.012125207111239433,-0.0791485533118248,0.04222094267606735,-0.06601142883300781,0.0012714070035144687,0.05616190657019615,-0.07786501944065094,0.004560592118650675,0.01166248507797718,0.019557543098926544,0.05686742439866066,-0.01675988920032978,-0.07067251950502396,-0.07050404697656631,-0.011081782169640064,-0.018129654228687286,0.06649594753980637,0.05174950137734413,-0.057427212595939636,0.017975185066461563,-0.006023143418133259,-0.05257702246308327,-0.042543936520814896,0.002279845764860511,0.01335342787206173,-0.013590040616691113,-0.01939387060701847,-0.0411699078977108,-0.0053800554014742374,0.03103439323604107,-0.05738228186964989,-0.0166757982224226,0.05539729446172714,0.06497463583946228,0.04519008472561836,0.061309926211833954,0.020068254321813583,0.02033420279622078,-0.07012423127889633,0.03955225646495819,0.06458685547113419,-0.026845663785934448,-0.003332924097776413,0.007585366256535053,0.06826496124267578,-0.020333971828222275,-0.0442403107881546,0.010530833154916763,0.01928442344069481,-0.014426757581532001,0.04511494189500809,-0.014162372797727585,-0.0751270204782486,0.03135795146226883,0.02343471720814705,0.04469997063279152,0.07474935054779053,-0.07633718103170395,0.029464194551110268,-0.04021952301263809,0.045622069388628006,-0.023713670670986176,-0.03890499472618103,0.06699548661708832,0.0605144165456295,-0.05104098841547966,0.011154391802847385,-0.02670799382030964,0.05431877449154854,0.033997464925050735,0.00485015707090497,-0.03187358006834984,-0.04937276989221573,-0.04416421428322792,0.05366506427526474,0.006783378776162863,0.0560821071267128,-0.07308127731084824,0.07665746659040451,-0.07132822275161743,0.06103832274675369,0.06610462069511414,0.06707374006509781,0.010585185140371323,0.0647311732172966,-0.0633249580860138,-0.050575852394104004,-0.0696536973118782,0.06724131852388382,0.0735703706741333,-0.007975646294653416,-0.036989063024520874,-0.07032784819602966,-0.06884360313415527,-0.03687688335776329,-0.0590846911072731,-0.06815945357084274,0.05692213028669357,0.05060791224241257,0.032747093588113785,-0.05396457016468048,0.011224365793168545,0.03133125603199005,0.050501689314842224,0.029335075989365578,0.020459076389670372,-0.019839050248265266,-0.07163799554109573,0.005413358565419912,0.03154726326465607,-0.07278310507535934,0.06429915130138397,-0.055296674370765686,-0.02331896498799324,0.07971072196960449,-0.05473637580871582,-0.021374577656388283,-0.0007663718424737453,0.07165618240833282,-0.00036274053854867816,-0.023637183010578156,-0.06463416665792465,0.037876661866903305,-0.06826063990592957,-0.04508492350578308,-0.056477222591638565,-0.03639556095004082,0.012386130169034004,-0.007675864268094301,0.0019067457178607583,0.0313541479408741,0.04728303849697113,-0.06448907405138016,0.00806067232042551,0.07649312168359756,-0.05994466319680214,-0.05944202467799187,0.007987681776285172,-0.010616039857268333,0.020522771403193474,0.028750808909535408,0.014225417748093605,0.021949397400021553,0.037273913621902466,0.02916409820318222,-0.0643700584769249,0.009021763689815998,0.034799616783857346,0.060910679399967194,0.05873137712478638,-0.07619563490152359,0.06487799435853958,0.05919237434864044,0.065853551030159,-0.04768136888742447,-0.030494507402181625,-0.06897462159395218,-0.06229795143008232,0.03356124460697174,-0.04942486435174942,-0.019619638100266457,-0.054750051349401474,0.009185691364109516,-0.04613785445690155,-0.046240050345659256,0.06446422636508942,0.06343243271112442,0.06153346598148346,0.062213361263275146,0.06159812584519386,0.07616035640239716,0.05359498783946037,-0.05796129256486893,-0.0611409954726696,0.0005406330456025898,0.02471889927983284,-0.008630326949059963,-0.07071126997470856,0.037431005388498306,0.03797101974487305,0.023926498368382454,0.05051961541175842,-0.06247266009449959,-0.04551078751683235,-0.015230040065944195,0.04919247701764107,-0.009818747639656067,-0.012156013399362564,0.04007379338145256,-0.034626446664333344,0.038813937455415726,-0.0771271362900734,0.055843036621809006,0.07538913935422897,0.012409414164721966,-0.044022515416145325,-0.0636976882815361,-0.06663794815540314,-0.0193236842751503,-0.06341231614351273,0.004611377604305744,-0.02868492528796196,-0.06568440049886703,-0.05991977080702782,0.03900202736258507,-0.061998605728149414,-0.032038118690252304,-0.046066466718912125,-0.07128619402647018,0.050845660269260406,-0.0017038796795532107,-0.014427990652620792,0.06091493368148804,-0.019520113244652748,-0.06851936876773834,-0.07886023819446564,-0.0498080812394619,-0.05236095190048218,0.0674828514456749,-0.00995356123894453,-0.04735596477985382,-0.048740454018116,0.05950072780251503,-0.04292745888233185,0.07398699223995209,0.06482493132352829,0.05131791532039642,-0.019059747457504272,0.042993344366550446,-0.012712272815406322,0.05434300750494003,0.025301789864897728,0.07984120398759842,0.06782794743776321,0.061655767261981964,0.07737430185079575,-0.04223460704088211,-0.05049512907862663,-0.055837322026491165,-0.01844937540590763,-0.0353277213871479,0.07187026739120483,0.00824083760380745,0.019139878451824188,0.0505688413977623,-0.01429715845733881,-0.02063223160803318,0.025733139365911484,-0.054109346121549606,0.019282782450318336,0.031332988291978836,-0.01967870071530342,0.008329017087817192,0.051555484533309937,-0.0003988432581536472,-0.064181387424469,-0.05116065591573715,0.07089433073997498,0.013786225579679012,0.04889010637998581,-0.009311138652265072,0.06621357798576355,-0.03995590656995773,0.0012940821470692754,0.04332258179783821,0.05801425129175186]},"forgetBias":{"rows":20,"columns":1,"weights":[0,0,0,0,0,0,0,0,0,0,0,0,0,0,0,0,0,0,0,0]},"outputMatrix":{"rows":20,"columns":20,"weights":[-0.05710624158382416,0.05277351662516594,0.07670699805021286,0.07903774082660675,0.009197589010000229,0.011650788597762585,0.03878398239612579,0.05208208039402962,-0.030412575230002403,0.06181912496685982,-0.060960814356803894,-0.020484454929828644,0.05337020009756088,0.044738221913576126,-0.017673732712864876,0.07232131063938141,0.06862960010766983,-0.07208957523107529,-0.05713783577084541,0.06760404258966446,-0.04302867874503136,-0.05956041440367699,0.05962789058685303,-0.034286294132471085,0.010399475693702698,-0.017285561189055443,-0.06706642359495163,0.056210778653621674,0.013935032300651073,0.03191588446497917,0.07367196679115295,-0.06427785009145737,-0.05025845021009445,0.024914294481277466,-0.03156992420554161,-0.0739101991057396,-0.057353489100933075,-0.00419869739562273,-0.06790503859519958,0.06416098773479462,0.02822968177497387,0.052208930253982544,0.033485047519207,0.06430899351835251,0.06860022991895676,-0.004623271059244871,-0.031135905534029007,-0.023502837866544724,0.05653861537575722,-0.06474430859088898,-0.02323584444820881,-0.03955072537064552,0.00029578403336927295,-0.05156606808304787,-0.04265734553337097,0.07280248403549194,-0.019779345020651817,0.0031552326399832964,0.03191530704498291,0.03168852999806404,0.03762435540556908,0.008684034459292889,-0.006300043780356646,0.020623957738280296,-0.03197336941957474,0.012512502260506153,-0.01412226352840662,0.0755055844783783,0.011281509883701801,-0.04273982346057892,0.010618023574352264,-0.047980163246393204,-0.03833406791090965,-0.0008333385339938104,0.03987833857536316,-0.03596287593245506,0.03275137394666672,0.00522253941744566,-0.07244699448347092,0.01281618233770132,-0.05563252046704292,0.01753406785428524,0.0005827756249345839,-0.028873398900032043,0.02102494053542614,-0.007522000931203365,0.011978669092059135,-0.06462503224611282,-0.07688504457473755,-0.03504309803247452,-0.012511059641838074,-0.07785791158676147,0.00860905647277832,-0.07189244776964188,0.036207716912031174,0.05608803778886795,-0.022732309997081757,-0.04389603063464165,-0.07810122519731522,0.06818521022796631,-0.033469874411821365,0.0778600350022316,-0.07091493904590607,-0.013952129520475864,-0.04627253860235214,0.048953525722026825,0.07866250723600388,0.0013936174800619483,-0.005626830272376537,-0.04121893271803856,-0.07367095351219177,0.05149875581264496,-0.0010593290207907557,-0.03498508781194687,0.032025061547756195,0.03108515404164791,-0.06198430806398392,0.03259805962443352,0.004251979291439056,0.048585738986730576,-0.016182687133550644,-0.05346102640032768,-0.07868032157421112,-0.03361031785607338,-0.03782350569963455,-0.04633689299225807,-0.010180223733186722,-0.04020552709698677,-0.018493248149752617,0.016628146171569824,-0.06248764321208,0.059253547340631485,-0.02952704206109047,0.06809098273515701,0.011379360221326351,-0.004376544617116451,0.047703709453344345,-0.006466736551374197,0.05818316340446472,0.028035946190357208,0.07227997481822968,0.062309909611940384,0.034791216254234314,-0.005763833411037922,0.02063008025288582,-0.0274781696498394,-0.04284097999334335,0.018094995990395546,0.0532197467982769,-0.05666645988821983,0.07740717381238937,0.0704217404127121,-0.03810971602797508,-0.017816947773098946,-0.04022105783224106,0.025274408981204033,0.03093457780778408,0.07965858280658722,0.02519862912595272,-0.07809609919786453,-0.03072258271276951,-0.05511962249875069,-0.055306125432252884,-0.06270188838243484,-0.02586190402507782,0.05115099996328354,0.011020204052329063,-0.05920647829771042,0.068386010825634,-0.05862453579902649,-0.05284838005900383,-0.0404348149895668,0.07870267331600189,-0.057256948202848434,0.04046282172203064,0.07451429218053818,0.05427324026823044,0.01409783773124218,-0.072007916867733,0.042000871151685715,-0.04139925166964531,-0.05238477885723114,-0.0697154775261879,-0.05122401937842369,-0.0608690045773983,0.00991523265838623,0.039281122386455536,0.06495293974876404,0.035440653562545776,0.0387050025165081,0.036729466170072556,-0.023576557636260986,0.07820963114500046,-0.07090044766664505,-0.04367895424365997,0.03128926455974579,-0.02498295158147812,0.04808563366532326,-0.0005345168756321073,0.02119608037173748,0.0018459579441696405,-0.0009756209328770638,0.05533583089709282,-0.02620014362037182,-0.04237045720219612,0.05194747447967529,0.007514922879636288,-0.07050738483667374,0.0076536573469638824,0.06136646866798401,-0.03720315545797348,0.032261695712804794,-0.005663786083459854,-0.055216122418642044,-0.04757922515273094,-0.048465877771377563,0.04957683011889458,0.005152939818799496,-0.054886866360902786,0.05516066402196884,0.04649001359939575,-0.038495127111673355,0.06985796988010406,-0.07987002283334732,0.0465497225522995,-0.05067926645278931,0.024199815467000008,-0.07044129073619843,-0.01919521763920784,-0.07170218974351883,0.07589848339557648,0.07033811509609222,0.014734127558767796,0.0257720910012722,-0.01014949195086956,0.05745178461074829,-0.03393220901489258,-0.023999981582164764,-0.061907555907964706,-0.016818521544337273,0.05710305646061897,0.02893325872719288,0.048189789056777954,0.020918020978569984,-0.06580590456724167,-0.012602980248630047,0.060949698090553284,-0.01066635362803936,-0.03670818731188774,0.028562365099787712,0.06223781779408455,0.0061320834793150425,-0.006994683761149645,0.026201006025075912,-0.049870092421770096,-0.058672450482845306,-0.0008393779280595481,-0.04310307651758194,0.03184003755450249,0.011963427066802979,0.07715494185686111,-0.05690045654773712,0.0003320764808449894,-0.01369890570640564,-0.046070195734500885,0.07668337970972061,-0.0407891683280468,0.007178846746683121,0.008984017185866833,-0.0771731585264206,0.04050350561738014,0.07444784790277481,0.021022120490670204,-0.0624530166387558,-0.001375069608911872,-0.03316028416156769,-0.057738665491342545,-0.07219395786523819,-0.07007037848234177,-0.06636840850114822,-0.03318566828966141,0.012367854826152325,-0.040683310478925705,-0.024040566757321358,-0.06511016935110092,0.03695640712976456,0.06743425875902176,0.025837097316980362,0.004078879486769438,0.0023440869990736246,0.05070682242512703,0.03437101095914841,0.07916394621133804,-0.03354543820023537,0.026694757863879204,0.04637943580746651,0.04475796967744827,-0.03725116327404976,-0.030882038176059723,-0.03453822433948517,0.05043899267911911,-0.06222597882151604,0.04867284744977951,-0.06279560178518295,-0.06774664670228958,0.017353011295199394,0.02368076704442501,-0.07001989334821701,0.05955662578344345,-0.06651726365089417,0.0542621836066246,-0.06754026561975479,0.05101005733013153,0.07909289002418518,0.06875748932361603,-0.0034397998824715614,0.03464966267347336,0.05882696434855461,0.06542481482028961,-0.06757064908742905,-0.06981983035802841,0.036256976425647736,-0.07697369158267975,-0.0062875025905668736,0.047305140644311905,-0.002253479789942503,0.0051516578532755375,0.07338403910398483,0.030528178438544273,-0.035873834043741226,-0.02788994461297989,-0.03408084064722061,-0.003690559882670641,-0.040108565241098404,-0.03914531692862511,0.03904086723923683,0.057873595505952835,0.04698023945093155,0.06539623439311981,-0.04268113896250725,-0.03201334550976753,0.046692099422216415,0.05202757567167282,-0.007532569579780102,0.03855804726481438,0.049104176461696625,-0.013011282309889793,-0.052978888154029846,-0.04290829226374626,-0.04985654354095459,0.030176252126693726,-0.05905964598059654,0.03777141869068146,0.03168634697794914,-0.006988268345594406,-0.003514619078487158,-0.06666585803031921,0.02595582604408264,0.03394058346748352,-0.030667489394545555,-0.06875860691070557,0.06718862056732178,0.04170813038945198,-0.07676465809345245,-0.009993176907300949,-0.04904117062687874,-0.05506217107176781,-0.058675382286310196,-0.03667499125003815,-0.07379153370857239,-0.06600482016801834,0.01969132386147976,-0.04743034765124321,-0.028757190331816673,0.05414477735757828,0.024986078962683678,-0.0423324890434742,0.006639157421886921,0.04403885826468468,0.05991502106189728,-0.012419253587722778,0.034584466367959976,0.06988615542650223,-0.06345389783382416,-0.019021442160010338,0.027148796245455742,-0.004393030423671007,0.04696235805749893,0.07764406502246857,0.03243500739336014,0.04578555002808571,0.04313729703426361,-0.05885585397481918,0.007969100959599018,-0.011607575230300426,-0.07956009358167648,0.07786761224269867,0.01854754239320755,-0.03594522178173065,-0.06863988935947418]},"outputHidden":{"rows":20,"columns":20,"weights":[0.06837140768766403,-0.017056414857506752,-0.05776198208332062,-0.06268714368343353,-0.07401075214147568,0.05992015451192856,0.031531818211078644,-0.030988767743110657,-0.022584883496165276,0.06406036019325256,0.0063019986264407635,0.006627080962061882,-0.07142642885446548,0.06912612915039062,0.07872631400823593,0.050189319998025894,0.015967974439263344,0.06803197413682938,0.021999966353178024,-0.0008978616097010672,0.03794953227043152,-0.047318536788225174,0.01920372247695923,-0.05634457617998123,0.04907652735710144,0.04914551228284836,-0.011598674580454826,0.03338953107595444,-0.06352947652339935,-0.07292000204324722,-0.0610903725028038,-0.02235318534076214,0.015317380428314209,0.05379932373762131,-0.04670161381363869,-0.015685128048062325,-0.05836453661322594,-0.030943965539336205,0.03812947869300842,-0.06266208738088608,0.0364314466714859,0.04555784910917282,0.07612381875514984,0.07869329303503036,-0.006493979599326849,0.04516586661338806,0.07931282371282578,0.01708739623427391,-0.013845901004970074,-0.04847519472241402,0.06426475197076797,0.04752487316727638,-0.007032482884824276,-0.007412704639136791,0.005880175158381462,0.010972908698022366,-0.057745374739170074,0.03309004008769989,0.047349631786346436,0.07288827002048492,0.027237731963396072,-0.06643281131982803,-0.05572909116744995,-0.07906415313482285,0.02101822942495346,-0.047299813479185104,0.04242018237709999,-0.037896182388067245,0.060710418969392776,0.03651085123419762,0.03940807282924652,0.003035802859812975,0.014374802820384502,0.05321929603815079,0.05428105592727661,-0.03860433027148247,-0.00021057682170066983,0.012013779021799564,0.03675219044089317,-0.00838677678257227,-0.03096228465437889,0.002529882825911045,-0.018497511744499207,-0.07714632153511047,0.05254264175891876,-0.02614300698041916,0.02490757219493389,0.07224180549383163,-0.0019041221821680665,0.0666431114077568,0.05738237872719765,-0.037266530096530914,0.057204004377126694,0.061145734041929245,0.02258969470858574,0.03168100118637085,0.016582556068897247,0.019760241732001305,-0.06719337403774261,0.06598156690597534,-0.06830354779958725,-0.04901678487658501,0.014282125979661942,-0.03460041061043739,0.041722625494003296,0.07917816936969757,0.009281744249165058,-0.047006335109472275,0.045057039707899094,0.018386008217930794,-0.05533101037144661,-0.05421919748187065,-0.042208801954984665,0.06856563687324524,-0.014308267273008823,-0.06908123940229416,-0.013201712630689144,0.008802032098174095,0.002816760679706931,0.06095445528626442,-0.012458247132599354,-0.0542183555662632,0.07446542382240295,0.07773797959089279,0.032674212008714676,0.027866743505001068,-0.07555782049894333,0.04723522812128067,-0.006140256300568581,-0.023461706936359406,0.03346125781536102,0.01619715616106987,-0.020469294860959053,0.010685812681913376,-0.02444964274764061,-0.009283090010285378,-0.0345388725399971,-0.07562768459320068,0.04756615683436394,0.07264755666255951,0.049790434539318085,0.01596364751458168,0.0006072776741348207,0.05391715466976166,-0.05192870274186134,-0.011348064988851547,-0.062303707003593445,0.05246123671531677,0.014306304045021534,-0.04430089145898819,-0.061135124415159225,0.05779178440570831,-0.015260245651006699,-0.0328105166554451,0.05992727354168892,-0.07295643538236618,-0.07131065428256989,-0.03741221874952316,-0.03181198239326477,-0.061045169830322266,0.03858005255460739,0.024072647094726562,0.02083766460418701,0.007746248971670866,0.06469739228487015,-0.06546074897050858,-0.05426475778222084,-0.07503005862236023,0.06629340350627899,0.03522701933979988,0.017908912152051926,0.05301076918840408,0.04130095615983009,-0.06128961592912674,0.0221725944429636,-0.004006733186542988,-0.006710248999297619,0.010193207301199436,-0.025675473734736443,-0.03293503820896149,0.05166963115334511,-0.002507002092897892,-0.018089640885591507,0.07629449665546417,-0.07240858674049377,0.06298629939556122,0.03184447064995766,0.014957079663872719,-0.05673057585954666,0.016011107712984085,-0.06033554673194885,0.07592591643333435,-0.026273179799318314,0.009082358330488205,-0.007559382356703281,-0.07952883094549179,0.0555446557700634,-0.02421887405216694,-0.0192840788513422,-0.059633366763591766,0.07821681350469589,-0.049563389271497726,-0.05574876815080643,0.0679134950041771,-0.07945303618907928,0.05855075642466545,-0.05675731599330902,-0.07048898935317993,-0.048630256205797195,-0.06641582399606705,0.0766303762793541,-0.021202512085437775,-0.040040940046310425,-0.019653968513011932,0.07499125599861145,-0.059354521334171295,0.007109992206096649,0.04069109633564949,-0.0594768263399601,-0.034436002373695374,-0.05006431043148041,-0.00750238262116909,-0.05587029457092285,0.07422816753387451,-0.004797198344022036,0.0722440630197525,-0.05874750763177872,-0.04292448237538338,0.07034540176391602,0.02731217071413994,0.02186756022274494,-0.03345019742846489,-0.07006950676441193,0.06956207007169724,0.011874360032379627,0.07153651118278503,-0.012888048775494099,-0.03592466562986374,-0.05631742253899574,-0.05173774063587189,-0.05556165426969528,0.019909068942070007,-0.025495968759059906,0.048268985003232956,-0.0068189059384167194,0.04335669428110123,-0.0011194456601515412,-0.07102148979902267,-0.05100648105144501,0.015075812116265297,0.06525727361440659,-0.022829663008451462,0.07299292087554932,0.06896469742059708,0.010217028670012951,-0.05717623978853226,-0.020125027745962143,0.015472047962248325,-0.04003189131617546,-0.04005618020892143,0.008511287160217762,-0.03246057406067848,-0.007696767803281546,-0.028956253081560135,0.0198911614716053,0.0050086453557014465,0.07412856817245483,0.005945319309830666,-0.05068241059780121,-0.05182908475399017,0.01849757507443428,-0.019657349213957787,-0.022252051159739494,-0.04853639379143715,-0.07003053277730942,-0.04163944348692894,0.0653868094086647,0.01561155915260315,0.02931300923228264,-0.01808936521410942,0.05458340048789978,-0.010562022216618061,-0.01495619211345911,-0.03355519846081734,0.07524501532316208,0.07725220173597336,-0.044444479048252106,-0.04609718546271324,0.06976711004972458,-0.020949773490428925,0.0374034121632576,-0.01601349748671055,-0.013889146968722343,-0.04491466283798218,-0.04790450260043144,0.029994633048772812,0.005403348710387945,-0.06001162901520729,-0.04361530765891075,-0.07497209310531616,0.06924613565206528,0.06455659866333008,-0.005406656302511692,0.05174229294061661,0.05526873469352722,0.05107267200946808,0.05249360576272011,0.02482987754046917,0.019333455711603165,-0.022719871252775192,0.019012534990906715,0.010080267675220966,0.005130453500896692,0.05412772670388222,0.025196323171257973,0.005752658471465111,0.05705791339278221,0.07617951929569244,-0.0019690252374857664,-0.02096458710730076,0.04872097074985504,-0.05517340451478958,-0.0501398891210556,0.05863530933856964,-0.07335014641284943,0.025936078280210495,0.03672218695282936,-0.07084352523088455,0.03259807452559471,-0.024861948564648628,0.01595293916761875,-0.04396604746580124,0.06680629402399063,-0.026864642277359962,-0.02653225138783455,0.07626056671142578,0.07107678055763245,-0.013399765826761723,-0.024776291102170944,-0.05534656345844269,0.0004926681285724044,0.04763548821210861,-0.06439614295959473,-0.0741119235754013,-0.04448037967085838,0.05112138390541077,0.06323062628507614,-0.019623005762696266,-0.06825821846723557,0.0023892009630799294,-0.010332451201975346,-0.03908051177859306,-0.024137774482369423,0.03302033618092537,0.0036496049724519253,-0.05800466239452362,-0.00004518799323705025,-0.06196265667676926,0.0212481077760458,-0.025614358484745026,-0.03714762255549431,0.018294669687747955,0.0744822695851326,-0.022229991853237152,-0.07536838948726654,-0.0784420296549797,0.024926884099841118,0.07144536077976227,0.027386322617530823,0.07863150537014008,-0.015153194777667522,0.030132105574011803,-0.053361568599939346,-0.027041934430599213,0.03802470862865448,0.016830680891871452,0.07800483703613281,-0.011220511980354786,0.011938934214413166,-0.003211965085938573,0.003931320738047361,-0.017174309119582176,-0.041548386216163635,0.04139798507094383,-0.07198566198348999,0.06896410137414932,0.04658268392086029,-0.0066590821370482445,0.045514803379774094,0.06319919973611832,0.05054111406207085,0.024928180500864983,-0.008202514611184597,0.02208220399916172,0.01790775917470455,-0.03819918632507324,-0.052653245627880096,0.018595203757286072,-0.07477696239948273,0.026188034564256668]},"outputBias":{"rows":20,"columns":1,"weights":[0,0,0,0,0,0,0,0,0,0,0,0,0,0,0,0,0,0,0,0]},"cellActivationMatrix":{"rows":20,"columns":20,"weights":[0.06162184104323387,-0.05215470492839813,0.06213920935988426,-0.06249445304274559,0.05069231241941452,-0.033221520483493805,0.012865220196545124,-0.005720202345401049,0.03702244535088539,-0.05282945930957794,-0.07020363211631775,-0.05049678683280945,-0.02025403082370758,-0.006549930199980736,-0.05326473340392113,-0.0028825351037085056,0.02915695123374462,-0.04454267770051956,-0.005428450182080269,0.0020493660122156143,-0.0540740042924881,0.004576019011437893,-0.022493744269013405,-0.04883541166782379,-0.06511688977479935,-0.01029153261333704,-0.015345933847129345,0.05854741856455803,0.0024460454005748034,0.07070297002792358,-0.02055293694138527,-0.030492860823869705,-0.05719268321990967,0.03650123253464699,0.00003158793697366491,0.026707489043474197,-0.07168243080377579,0.05086706951260567,0.05268062651157379,-0.05209027975797653,-0.005348576232790947,-0.02803667075932026,0.0067793214693665504,0.004079768434166908,0.04299461096525192,0.0061613041907548904,0.052791815251111984,0.04676377400755882,-0.036050960421562195,0.03619810566306114,0.02316691167652607,0.00987975299358368,-0.030632546171545982,0.03243956342339516,-0.07610338181257248,-0.06792362779378891,-0.02548028528690338,0.05506138876080513,0.012992613017559052,0.03764272481203079,-0.06554879993200302,-0.04574618116021156,0.00373873976059258,-0.02518770471215248,0.007330271881073713,0.05982183665037155,0.06066396087408066,-0.06048709526658058,-0.02720635011792183,0.027109067887067795,-0.05689170956611633,-0.018681775778532028,-0.07440303266048431,0.013065529055893421,0.03523830696940422,-0.020841112360358238,0.030528971925377846,0.03936287388205528,-0.04889197647571564,-0.033240530639886856,0.0505511611700058,0.016469325870275497,0.06957028806209564,-0.012504499405622482,-0.032420869916677475,-0.041572149842977524,0.0712609589099884,-0.063507579267025,0.022813573479652405,-0.0181039460003376,-0.004598603118211031,0.016124676913022995,0.07497230917215347,0.00834878720343113,0.04626015946269035,-0.07232818007469177,-0.05940546095371246,0.017750676721334457,0.01922151818871498,-0.025308946147561073,0.07160862535238266,0.025164566934108734,0.017084918916225433,-0.004116129130125046,0.02688566781580448,0.04908977821469307,0.028361793607473373,-0.059691041707992554,-0.05228863283991814,0.010275776498019695,-0.006508812308311462,-0.07921876758337021,-0.006248130463063717,-0.07026991993188858,0.054101306945085526,-0.020860910415649414,-0.040831781923770905,0.06526064872741699,0.03154944255948067,0.021636981517076492,0.013058900833129883,0.004350217524915934,-0.025736747309565544,0.07379850745201111,-0.009278510697185993,0.03949383646249771,-0.03776247799396515,-0.06103966012597084,0.03262456879019737,0.0025461993645876646,0.027405178174376488,0.0004104363324586302,0.008833096362650394,0.05982644855976105,0.039055824279785156,0.013656462542712688,-0.01983334869146347,-0.05252567678689957,-0.07884007692337036,-0.033894170075654984,0.05718506872653961,-0.030324213206768036,-0.02918585203588009,0.04884687066078186,0.051150329411029816,-0.027216104790568352,-0.06028887629508972,-0.049898844212293625,0.014513201080262661,0.0130941616371274,0.05667707324028015,0.04646891728043556,0.07447832077741623,-0.07155244797468185,0.02689005434513092,0.04761393368244171,0.016936110332608223,0.04861201345920563,0.0500386543571949,0.024939265102148056,-0.021785827353596687,-0.011634129099547863,-0.06735221296548843,0.01306470762938261,-0.029309790581464767,0.02906624600291252,-0.03368540480732918,0.04652309790253639,-0.053884342312812805,-0.061733417212963104,-0.06943012028932571,0.012200233526527882,-0.047893453389406204,0.001215288764797151,-0.02158050611615181,0.07731804251670837,-0.00008985809108708054,0.017530176788568497,0.0029201393481343985,-0.015651293098926544,-0.02105211839079857,-0.05085855349898338,0.025460945442318916,0.0238695926964283,-0.024907181039452553,-0.0591060072183609,0.03846229240298271,0.02731630764901638,-0.0724019780755043,-0.0019735984969884157,0.0354461632668972,0.04731357842683792,0.06026124209165573,-0.045717351138591766,0.06951521337032318,-0.019972920417785645,-0.01596330851316452,0.03415801376104355,-0.007146136369556189,-0.06536171585321426,-0.03695838525891304,0.07169251888990402,-0.052147798240184784,0.03513024002313614,-0.04133988171815872,0.029616111889481544,-0.01969686523079872,0.0654509961605072,-0.002605515532195568,0.06231089308857918,-0.03741152212023735,-0.00026548682944849133,0.018996307626366615,0.0645059198141098,-0.0508604571223259,-0.05550987273454666,0.025039035826921463,0.06928671896457672,0.0643722265958786,-0.05978912115097046,-0.03472050651907921,0.00048394984332844615,-0.05873047187924385,0.0069085340946912766,0.07275782525539398,0.07788899540901184,-0.0053842258639633656,0.021364158019423485,-0.07643188536167145,-0.0006663923268206418,-0.0550917349755764,-0.07753142714500427,-0.05864210054278374,-0.018013110384345055,-0.020930154249072075,-0.06186915934085846,0.06399915367364883,-0.05289715155959129,0.03885315731167793,0.060779064893722534,-0.0054406519047915936,0.06340561807155609,-0.009193518199026585,0.054855044931173325,-0.0437844917178154,0.021149126812815666,-0.0041679213754832745,-0.040585290640592575,0.02738477662205696,0.028984742239117622,-0.06702358275651932,0.032772406935691833,-0.021477747708559036,-0.05383530259132385,-0.021480003371834755,0.0471196323633194,0.06419966369867325,-0.03681018203496933,-0.041254833340644836,-0.03274200111627579,0.06581541895866394,-0.03502800315618515,-0.018435729667544365,-0.05630897358059883,0.04962359368801117,-0.007573917508125305,0.02305307611823082,0.07779138535261154,0.05281538888812065,0.03561970964074135,0.03199001029133797,0.02336270734667778,-0.03320407122373581,0.02782478742301464,-0.05007835850119591,0.05677429959177971,-0.05786117911338806,0.032067228108644485,0.07630173861980438,-0.04996461048722267,0.022855080664157867,-0.005070287734270096,-0.07373154163360596,-0.06017937883734703,-0.050149302929639816,-0.07303981482982635,0.05754600465297699,-0.07298321276903152,0.06413612514734268,0.07673652470111847,-0.06640363484621048,0.04539451748132706,-0.05119955167174339,-0.008184040896594524,-0.07734168320894241,-0.06721062958240509,-0.06179406866431236,-0.07212013006210327,-0.07270391285419464,0.062078170478343964,-0.005699050612747669,-0.030998729169368744,-0.06346961855888367,-0.003966633230447769,-0.07447655498981476,0.03001965954899788,-0.028714753687381744,-0.06025571748614311,0.020291326567530632,0.022799836471676826,0.07560957223176956,0.005286823958158493,-0.031992107629776,0.03767695277929306,0.07172777503728867,0.06655313074588776,-0.04458383098244667,0.0289600882679224,-0.017153091728687286,-0.04496397078037262,-0.035464074462652206,-0.02936130203306675,0.07003055512905121,-0.03431667387485504,0.019968131557106972,0.015353284776210785,-0.015580418519675732,-0.013758762739598751,-0.016646968200802803,0.009286222979426384,0.0584537535905838,0.07580438256263733,0.04938957095146179,0.049576129764318466,0.05901693180203438,-0.07839027047157288,0.017308564856648445,0.06386328488588333,-0.03406690061092377,0.02509298361837864,-0.04588676616549492,-0.06276614218950272,0.030300399288535118,0.010186733677983284,-0.02088366448879242,0.06345976144075394,-0.019733183085918427,-0.02548658661544323,-0.006564364302903414,0.04622138664126396,0.03512725979089737,0.008088397793471813,-0.03600237891077995,-0.010231959633529186,0.03659527748823166,-0.03565186262130737,-0.026924235746264458,-0.049001481384038925,-0.07751820981502533,-0.04302951693534851,-0.06542445719242096,0.029233789071440697,-0.037696342915296555,0.0445164330303669,0.06688008457422256,-0.05873279646039009,0.05706851929426193,0.04252791032195091,0.06038660183548927,0.04079030826687813,-0.023997526615858078,0.056795258074998856,0.0665925070643425,-0.027725383639335632,-0.05116696283221245,-0.06727895140647888,-0.030538111925125122,0.057100191712379456,0.011728668585419655,0.03426223620772362,-0.014918587170541286,-0.07041340321302414,-0.06110720708966255,-0.07563959062099457,-0.029193758964538574,0.03283349797129631,0.05759003013372421,0.03622401878237724,-0.018411196768283844,-0.01854565180838108,0.0172877237200737,-0.05941101536154747,-0.036172427237033844,0.016663646325469017,0.0423198901116848,-0.046019334346055984,0.004305562004446983,-0.050963807851076126,-0.02431453764438629,0.03139514476060867]},"cellActivationHidden":{"rows":20,"columns":20,"weights":[0.06265087425708771,0.003259254852309823,0.04387017711997032,0.01669194921851158,-0.05989733710885048,0.002563862595707178,0.055025625973939896,0.018096137791872025,0.003011794062331319,0.015492524951696396,-0.055368322879076004,0.06561648100614548,-0.07045792043209076,-0.05759699270129204,-0.03359416127204895,0.010905208066105843,-0.019078336656093597,-0.027018515393137932,0.0637005940079689,-0.07439055293798447,0.06118307262659073,-0.03062460571527481,0.043014612048864365,-0.06446313112974167,0.005044886376708746,-0.02406170219182968,-0.056109391152858734,0.06718982011079788,0.0013814031844958663,-0.027375750243663788,0.07652980834245682,-0.06590817123651505,0.07370926439762115,0.07711652666330338,0.05713088810443878,-0.0646112784743309,-0.048436205834150314,-0.07741449028253555,-0.013432648032903671,0.04051654040813446,-0.07866867631673813,0.015298182144761086,-0.04013987258076668,-0.05928082391619682,-0.035843316465616226,0.06079866737127304,-0.006656287703663111,0.07156754285097122,0.00879562459886074,-0.022673355415463448,0.010819192044436932,0.050153885036706924,-0.07527533918619156,-0.027799921110272408,-0.07411420345306396,-0.02827354334294796,0.047075796872377396,0.03669607266783714,-0.03820422664284706,0.011175297200679779,-0.005078265443444252,0.07764631509780884,-0.02477733977138996,-0.041338127106428146,0.011505870148539543,-0.034656524658203125,-0.06360974162817001,0.0016447603702545166,-0.04853619262576103,-0.028204482048749924,-0.0692160502076149,0.03940752148628235,-0.031902752816677094,-0.06850143522024155,0.02676042541861534,0.03687957674264908,0.05044858530163765,0.02666354738175869,0.052694790065288544,0.07462137937545776,0.06250003725290298,-0.066302090883255,-0.043250393122434616,-0.04520826041698456,0.07831750810146332,0.07898575067520142,-0.05021970346570015,0.049554064869880676,-0.04704252630472183,-0.02969946525990963,0.017110882326960564,0.05691581964492798,-0.04791892319917679,-0.07799217104911804,0.0625871792435646,-0.05534784868359566,-0.04329279065132141,-0.07004836946725845,-0.06910373270511627,0.03345771133899689,0.04372259974479675,-0.0316389799118042,-0.05732946842908859,-0.07434945553541183,-0.04794807359576225,-0.02247895486652851,0.05049712583422661,0.05536574125289917,0.021187717095017433,-0.07919792085886002,0.032771892845630646,0.03763977065682411,-0.07825246453285217,0.04387848824262619,-0.06276348233222961,-0.021809473633766174,0.07365378737449646,0.039483509957790375,0.032272033393383026,-0.07471515983343124,-0.06717430800199509,0.05476544797420502,-0.03543049842119217,0.04360697418451309,0.009830895811319351,0.014303815551102161,0.04084518179297447,0.03614566847681999,0.03380952402949333,-0.020215047523379326,-0.021270738914608955,-0.02670876868069172,0.000912943622097373,0.04008373245596886,0.04256316274404526,-0.04069661721587181,-0.06876488029956818,-0.022670965641736984,-0.0034898912999778986,-0.05320436507463455,-0.019574981182813644,-0.03721851110458374,-0.06753194332122803,-0.006383378524333239,0.014519881457090378,-0.04940933734178543,0.025480901822447777,0.057388633489608765,-0.06400559842586517,-0.0526057630777359,0.07425273209810257,0.07224027812480927,-0.029649175703525543,-0.015175442211329937,0.04188413545489311,-0.05352400615811348,0.06984424591064453,-0.0014098221436142921,0.061538856476545334,-0.04763636365532875,0.015401197597384453,0.07514773309230804,-0.04623465985059738,0.02722819149494171,-0.06731215119361877,0.06692822277545929,-0.05215112864971161,-0.016104018315672874,0.05114682391285896,0.06931397318840027,-0.05337875336408615,0.019462935626506805,0.050542257726192474,-0.0042091067880392075,-0.06094999983906746,0.010903166607022285,-0.07199478894472122,0.006689969915896654,-0.05106857791543007,-0.04668993875384331,-0.03853948041796684,0.01991359516978264,0.05932340770959854,-0.03419031202793121,0.07305695116519928,-0.07521969079971313,0.02744162268936634,0.04332982003688812,0.002242601942270994,0.05752415955066681,0.0399555005133152,-0.01107957772910595,0.045592330396175385,0.06401949375867844,-0.07344228774309158,-0.02786758914589882,-0.012837844900786877,0.03173823282122612,0.0559731088578701,-0.015559977851808071,0.051709678024053574,-0.0313454270362854,-0.02793842740356922,0.015026407316327095,0.04435691982507706,0.031075991690158844,0.036702342331409454,0.04539225995540619,0.046268973499536514,-0.03465833142399788,-0.02730490081012249,0.07398919761180878,-0.06250647455453873,0.05969744175672531,0.06359481811523438,0.006910127587616444,-0.012116813100874424,-0.010976304300129414,-0.04226474463939667,-0.030413338914513588,-0.004883765242993832,-0.0487501323223114,0.054445259273052216,-0.06890920549631119,-0.004840474110096693,0.04032326862215996,-0.03314138576388359,0.05365603044629097,-0.026602711528539658,0.05582771822810173,-0.04853785037994385,-0.01599009335041046,0.015563178807497025,0.0645768791437149,-0.006418704055249691,-0.033495448529720306,0.07420671731233597,-0.01065562292933464,-0.06962268054485321,0.059577420353889465,0.007256379351019859,-0.029283352196216583,0.021300897002220154,0.05370441824197769,-0.04057687148451805,0.03512623533606529,-0.048157431185245514,-0.06172136962413788,-0.040086936205625534,-0.009569600224494934,-0.07017654180526733,0.03703782707452774,-0.012792741879820824,0.05399267375469208,-0.037679482251405716,0.039942383766174316,0.0225595161318779,-0.06556709110736847,0.05354931578040123,-0.05481081083416939,-0.031525902450084686,-0.06715722382068634,-0.019476046785712242,0.003325861878693104,-0.03248274326324463,-0.003624425968155265,0.05104829743504524,0.0007714112871326506,0.07767293602228165,0.014841745607554913,0.04098121076822281,-0.06697539985179901,-0.07779838889837265,0.07097136974334717,-0.017012126743793488,0.0720444768667221,0.04185425490140915,0.006215814966708422,-0.03836545720696449,0.06021740287542343,-0.009356177411973476,-0.0568276084959507,-0.013942007906734943,-0.060594819486141205,-0.00785230565816164,-0.07158194482326508,0.053718674927949905,-0.029211606830358505,-0.004529190249741077,-0.036444008350372314,0.04218452423810959,0.07505104690790176,0.056634366512298584,0.018696455284953117,0.04126172140240669,0.020783862099051476,-0.02808072604238987,-0.040170177817344666,-0.0789601057767868,-0.043531130999326706,-0.009082278236746788,0.00030460060224868357,-0.0034047786612063646,0.054449982941150665,0.04016091302037239,0.016293173655867577,0.006364685483276844,0.012508020736277103,-0.024762071669101715,-0.01767454668879509,-0.050833433866500854,-0.047599516808986664,0.046167295426130295,-0.06992382556200027,0.028111886233091354,-0.06804125756025314,0.04773571714758873,-0.06785572320222855,-0.07473871856927872,-0.050278257578611374,0.0489446260035038,-0.06558273732662201,-0.026070088148117065,0.03789567947387695,0.05250078812241554,0.04310925677418709,0.05733766034245491,0.05202950909733772,0.0450437106192112,0.031078046187758446,-0.0030507466290146112,0.02828131429851055,0.07882092148065567,-0.0018766558496281505,-0.031221088021993637,-0.05803844332695007,-0.023891426622867584,0.07944821566343307,0.05868392065167427,-0.053832948207855225,-0.0423956923186779,0.030730755999684334,0.02844381518661976,-0.057613883167505264,0.06057202070951462,-0.05459369719028473,0.02464505098760128,-0.052958209067583084,-0.00048311331192962825,0.043040018528699875,-0.006104511208832264,-0.04437796398997307,-0.019744792953133583,0.024814434349536896,-0.014816118404269218,-0.0073769427835941315,0.049581579864025116,-0.050431735813617706,0.05659157410264015,0.04366888478398323,0.06626354157924652,0.04899638891220093,-0.05023256316781044,0.06948181241750717,-0.011490434408187866,0.02102443389594555,0.05277084559202194,-0.03689355403184891,0.06895064562559128,-0.00683498615399003,-0.02669435925781727,-0.04219554737210274,-0.051401667296886444,-0.013805246911942959,0.06520253419876099,-0.023765739053487778,0.0631178691983223,-0.04587982967495918,0.05111416056752205,-0.07884705066680908,-0.01467943750321865,-0.047362320125103,0.03389596939086914,-0.04567038267850876,0.007313691079616547,0.06071800738573074,-0.02277246117591858,0.007844680920243263,0.037002190947532654,0.014083950780332088,0.00540490448474884,0.01873307302594185,0.07971315085887909,0.004265840630978346,-0.060442324727773666,0.036143649369478226,-0.07253412902355194,-0.07277895510196686,0.028078453615307808,0.026210233569145203]},"cellActivationBias":{"rows":20,"columns":1,"weights":[0,0,0,0,0,0,0,0,0,0,0,0,0,0,0,0,0,0,0,0]}},{"inputMatrix":{"rows":20,"columns":20,"weights":[-0.061095673590898514,0.017907317727804184,-0.05374792590737343,-0.056222714483737946,0.07051218301057816,0.04214315488934517,0.05809648334980011,0.06352066248655319,0.0024828859604895115,0.07626409083604813,-0.012221334502100945,0.025751404464244843,-0.02255062758922577,-0.05920786410570145,-0.03306031972169876,0.05857409909367561,-0.05470249801874161,0.014542301185429096,-0.04355565086007118,0.03919284790754318,0.02074333466589451,0.03377341479063034,0.07595090568065643,-0.04669156298041344,-0.010983931832015514,-0.05733511969447136,-0.02918349951505661,-0.055647578090429306,-0.0571017749607563,-0.037317633628845215,0.008580759167671204,-0.052331965416669846,-0.01396217755973339,-0.0074878656305372715,0.04413596913218498,0.015809234231710434,0.03125761076807976,0.06409499794244766,-0.029040565714240074,-0.037655603140592575,-0.030025895684957504,-0.024661535397171974,-0.025447020307183266,-0.02889830805361271,-0.050435807555913925,-0.07105805724859238,0.0634421855211258,0.03568318113684654,-0.024718113243579865,-0.051338981837034225,0.014398458413779736,-0.06476690620183945,-0.03895895555615425,0.06584963947534561,0.008567831479012966,0.028977084904909134,-0.06141696497797966,0.0051972814835608006,0.018678151071071625,-0.07074309885501862,-0.07710114121437073,-0.05992606654763222,0.06726212799549103,0.028518112376332283,0.04559725895524025,-0.06501038372516632,-0.046234380453825,-0.06376699358224869,0.05028650164604187,-0.037571076303720474,0.04320944473147392,-0.000778961752075702,-0.055921848863363266,0.07296580821275711,0.010434404015541077,0.02252824231982231,-0.011654885485768318,-0.028287475928664207,0.06321366876363754,-0.02823648601770401,0.0047858464531600475,0.031226279214024544,-0.04824936017394066,-0.05683140456676483,-0.015254260040819645,-0.0008758690673857927,0.01475596521049738,-0.04261278361082077,0.013141198083758354,0.03731922432780266,-0.04948720708489418,-0.06880287826061249,-0.0743626281619072,-0.061012152582407,-0.07914352416992188,0.06292053312063217,0.031644199043512344,0.01003654021769762,-0.0033199626486748457,0.025520291179418564,-0.0709143877029419,0.0736970379948616,-0.07713628560304642,0.025558192282915115,0.0653488039970398,-0.032509878277778625,-0.029988517984747887,-0.06159185245633125,0.04475460946559906,0.023478250950574875,0.005516546778380871,-0.07909095287322998,-0.06322798877954483,0.003774177748709917,-0.00832048524171114,-0.0054246424697339535,-0.06152459979057312,-0.058229707181453705,0.03477570414543152,0.07300640642642975,-0.07792685925960541,0.024550538510084152,-0.020483417436480522,-0.06578430533409119,0.05062609910964966,-0.04293779283761978,-0.024289995431900024,-0.021490473300218582,-0.0458996556699276,-0.04047976806759834,0.07918224483728409,-0.020793121308088303,-0.06531635671854019,0.04995158314704895,-0.016659589484333992,-0.0017678863368928432,-0.056798987090587616,-0.0322355255484581,0.07911553233861923,0.01922222413122654,0.03159718960523605,-0.04709842428565025,-0.07590388506650925,0.06535261124372482,0.06314072012901306,0.003915739711374044,0.020475249737501144,0.06274232268333435,0.03221050277352333,0.0015807501040399075,-0.00925227627158165,-0.003768300171941519,0.057514358311891556,0.046097323298454285,0.06430908292531967,-0.0352361798286438,-0.053334079682826996,-0.04860587790608406,-0.0752805843949318,-0.021381312981247902,0.002671563532203436,-0.060210421681404114,0.03739214316010475,-0.0297942366451025,0.005630290601402521,-0.017934728413820267,0.025968117639422417,-0.004681592807173729,-0.0019762099254876375,-0.07712867856025696,0.055267442017793655,-0.02820967510342598,-0.0648401528596878,-0.03582530841231346,0.05218648165464401,0.06912262737751007,-0.056901756674051285,0.06396540254354477,-0.06881466507911682,0.052387963980436325,-0.05435178801417351,-0.07696029543876648,0.016728147864341736,0.07742464542388916,0.06921470165252686,-0.012104463763535023,-0.040722545236349106,0.036702707409858704,0.03041311725974083,-0.0027752600144594908,0.07904592901468277,0.06763605773448944,-0.04360244423151016,0.02356680855154991,-0.037800561636686325,0.04378923773765564,-0.0535682737827301,0.028262639418244362,0.03607334569096565,-0.0771213173866272,-0.07588854432106018,-0.025711091235280037,-0.05358227714896202,0.04591041058301926,-0.07282034307718277,-0.002376065356656909,0.04470532760024071,-0.06909675896167755,-0.07440759986639023,-0.04060226306319237,-0.060247208923101425,0.009944184683263302,-0.0774298757314682,0.07939784228801727,-0.035836778581142426,-0.028090497478842735,0.05164502561092377,0.030099432915449142,0.028170792385935783,-0.07386186718940735,0.0289639662951231,0.036703284829854965,0.0038405528757721186,-0.011297754012048244,-0.0005114253726787865,0.06405416131019592,0.04581150785088539,0.009351837448775768,-0.004535384476184845,-0.07141523063182831,-0.02647460624575615,-0.05446513369679451,0.014169328846037388,0.005421089474111795,-0.032898496836423874,0.03172802925109863,0.0640503540635109,0.04909682646393776,0.02494952268898487,0.047334130853414536,-0.0450669601559639,0.05355799198150635,-0.01941119134426117,0.07699675112962723,-0.009574701078236103,0.03245779499411583,-0.022720536217093468,-0.0262968298047781,-0.03659592941403389,0.03477410599589348,-0.07444492727518082,-0.03685871139168739,-0.05391059070825577,-0.005993039812892675,-0.0752735286951065,0.02368997223675251,0.03852756693959236,-0.03769967332482338,-0.011148517951369286,0.02513209357857704,-0.025761116296052933,0.012051857076585293,-0.0212546419352293,-0.05393802747130394,-0.0219105314463377,-0.07795218378305435,-0.07242243736982346,-0.05118865892291069,-0.03593612089753151,0.012246532365679741,-0.047762490808963776,0.004124148283153772,0.05361673980951309,0.000441662356024608,-0.01193562988191843,0.06357557326555252,0.062410783022642136,0.0382312536239624,0.025836143642663956,0.011970224790275097,-0.05495139956474304,-0.07193941622972488,-0.07974305748939514,-0.06681356579065323,0.04713046923279762,0.067500039935112,0.047053296118974686,-0.006244310177862644,-0.06547234207391739,-0.010733279399573803,0.0755891352891922,0.043274085968732834,0.07710357010364532,-0.02907952480018139,-0.03331678733229637,0.0736914649605751,0.06293528527021408,0.030967246741056442,-0.015705391764640808,0.03636326640844345,-0.04742918163537979,0.05078230798244476,0.003478934755548835,0.040978461503982544,0.020905587822198868,-0.03944852575659752,-0.007005928549915552,-0.0016933005535975099,-0.02964896522462368,-0.06253652274608612,-0.06570471823215485,0.021103909239172935,0.009469570592045784,-0.05676788091659546,-0.04605992138385773,0.04312650486826897,-0.011965777724981308,0.031992439180612564,-0.03004944697022438,-0.06835037469863892,0.022612189874053,0.02191665768623352,0.03552371636033058,-0.0003171082935295999,-0.046854231506586075,0.07538285851478577,-0.07545313239097595,0.07942438125610352,0.03665747120976448,-0.011682640761137009,-0.06886259466409683,-0.05284150317311287,-0.022557193413376808,-0.042806848883628845,0.03259391337633133,-0.06718751043081284,0.04701310023665428,-0.0560300275683403,0.04967661201953888,-0.031036384403705597,0.011034127324819565,-0.036896027624607086,0.06607814878225327,0.07405159622430801,-0.05887071043252945,0.029513081535696983,-0.008917007595300674,-0.05524929240345955,-0.06897440552711487,0.07337947934865952,0.06633926182985306,-0.06735244393348694,-0.00015128121594898403,0.06961476057767868,-0.05759882554411888,-0.03961149975657463,0.057685598731040955,-0.07955624163150787,-0.010163809172809124,0.0722353458404541,-0.00006138058233773336,0.002431107684969902,-0.016661250963807106,0.057808078825473785,0.03893119841814041,-0.01585523597896099,0.06854210048913956,0.06683340668678284,-0.03952491283416748,0.0068196700885891914,-0.04687400907278061,0.020139943808317184,0.017332687973976135,-0.0036143253091722727,-0.05491795018315315,0.009658696129918098,-0.017213063314557076,-0.05469368398189545,0.0650181695818901,-0.04489276930689812,-0.06411059200763702,-0.01351382676512003,-0.038901858031749725,-0.03964875265955925,0.07975853234529495,-0.05340411141514778,0.0003034846158698201,0.028033867478370667,-0.030926944687962532,0.04823002219200134,-0.011956730857491493,0.07210266590118408,0.030314944684505463,-0.0024546384811401367,0.012056911364197731,0.03899267688393593,-0.028889760375022888,-0.028510479256510735,-0.021156150847673416,-0.025415051728487015]},"inputHidden":{"rows":20,"columns":20,"weights":[-0.033684343099594116,-0.06373637914657593,-0.052904922515153885,0.008335642516613007,-0.02528257481753826,-0.0028948471881449223,-0.061372220516204834,0.02819320373237133,0.01811489462852478,-0.0009249437134712934,0.022440800443291664,-0.011244912631809711,-0.022533604875206947,0.026196569204330444,0.041980594396591187,-0.005772455129772425,-0.04989756643772125,0.012727429158985615,0.016524262726306915,0.022786211222410202,-0.029182597994804382,-0.02043846808373928,0.06986039876937866,-0.019737914204597473,-0.02088920958340168,-0.024449188262224197,-0.0674995630979538,0.022090129554271698,-0.05482960492372513,-0.043934695422649384,0.04536212608218193,0.04979467764496803,0.02468276210129261,-0.01821001060307026,-0.001057019573636353,-0.02446780726313591,-0.0264204703271389,-0.06774232536554337,0.015683496370911598,0.0653110221028328,-0.027423493564128876,-0.07606207579374313,-0.05868661031126976,0.0585099421441555,0.022747579962015152,-0.0657774806022644,0.042906444519758224,0.03510969877243042,0.05665242299437523,-0.008441447280347347,-0.016792606562376022,-0.024030545726418495,-0.049758680164813995,0.04716630280017853,-0.04075344651937485,-0.07300201058387756,0.054426420480012894,0.027118291705846786,-0.0742843896150589,0.04750628396868706,-0.012272555381059647,0.023188132792711258,0.03290814533829689,0.07001914829015732,-0.0014968448085710406,-0.06815700978040695,-0.06053534522652626,-0.010020515881478786,0.07473193109035492,0.024896226823329926,-0.07016442716121674,-0.009512332268059254,-0.007751368451863527,-0.047632940113544464,-0.03536907210946083,0.07121758162975311,0.0009753469494171441,0.06228385493159294,0.03286103904247284,0.06730800122022629,-0.06498260051012039,-0.03818482160568237,-0.042874231934547424,0.0501391738653183,0.030022742226719856,0.07906823605298996,0.03167835250496864,-0.06087348237633705,-0.0510360412299633,-0.006056379992514849,0.07513424754142761,-0.07709250599145889,-0.0016654871869832277,-0.010467794723808765,-0.02860194630920887,0.038170043379068375,-0.0723050907254219,0.05628424510359764,0.059305306524038315,0.00985179003328085,-0.01654140092432499,0.059868376702070236,-0.04562966153025627,0.04447321221232414,0.03360354155302048,-0.05545049160718918,0.07192055135965347,0.06807266920804977,0.058974090963602066,-0.04408988729119301,0.07720548659563065,0.07179048657417297,0.040760189294815063,-0.03750258684158325,0.054401881992816925,-0.06561248004436493,-0.07895941287279129,0.01571597158908844,-0.06578297168016434,-0.04814520478248596,0.07148757576942444,0.06502272188663483,-0.018144693225622177,-0.07562848180532455,-0.033921029418706894,0.07152725011110306,-0.06034214794635773,0.023507142439484596,0.009451736696064472,-0.004970124922692776,-0.027065208181738853,-0.06945089250802994,0.055618736892938614,-0.020524395629763603,-0.039928268641233444,0.07063493877649307,0.07048676162958145,0.046184077858924866,-0.05488412827253342,-0.024261517450213432,0.01934291422367096,0.07465627044439316,-0.04275285080075264,-0.07908253371715546,0.06552202254533768,0.06381895393133163,0.04032332822680473,0.0029361655469983816,-0.007845111191272736,0.003951291088014841,-0.06724691390991211,-0.04280846193432808,-0.057199038565158844,-0.05316894128918648,0.06448547542095184,0.038452062755823135,0.036830078810453415,0.012259856797754765,0.019068501889705658,0.02043076790869236,-0.03144242241978645,-0.03289715573191643,-0.00024497081176377833,-0.05128227174282074,-0.05773848667740822,-0.01747712306678295,0.07846595346927643,-0.03138521686196327,0.062394797801971436,-0.032102473080158234,-0.016751103103160858,0.05092878267168999,0.009334396570920944,0.06216353923082352,0.0717165470123291,0.052390359342098236,0.03723759949207306,0.07029887288808823,0.000837131345178932,0.04668775200843811,0.05407286807894707,-0.06222372129559517,0.00607580691576004,0.019774800166487694,0.022383837029337883,0.03229951113462448,0.022305196151137352,-0.0662892535328865,-0.055573947727680206,0.03106335736811161,0.007097036577761173,-0.02959553897380829,0.000741774623747915,0.050318945199251175,-0.07556141912937164,0.025156831368803978,0.004503711126744747,0.02076089009642601,0.060794197022914886,-0.02530643343925476,-0.02795005962252617,-0.043234895914793015,-0.0729735866189003,0.04998472332954407,0.04838179796934128,-0.0397769957780838,-0.01868303492665291,0.02466937154531479,0.0024077468551695347,-0.05312959477305412,0.07035643607378006,0.04829452559351921,-0.07878707349300385,0.0038974245544523,-0.04204022139310837,-0.05743153393268585,-0.06353801488876343,0.053085897117853165,0.06301485747098923,0.01159947644919157,-0.026585537940263748,0.035732947289943695,0.06089283153414726,0.05355257913470268,0.03965901583433151,0.014050445519387722,-0.07455223053693771,0.06540917605161667,0.004509914666414261,0.07136784493923187,0.011095712892711163,0.048524048179388046,0.027253130450844765,0.011897963471710682,0.06642482429742813,-0.04245360940694809,-0.02188519388437271,0.01588018424808979,-0.056278955191373825,0.04027482122182846,0.040489181876182556,0.06967718154191971,0.06594907492399216,0.06891681253910065,0.035159602761268616,-0.059362269937992096,0.04663008451461792,-0.05109695717692375,0.048842642456293106,0.030837180092930794,-0.04077479988336563,0.06860140711069107,0.06549892574548721,-0.03517777845263481,0.03687124326825142,0.0750979632139206,0.04664240777492523,-0.07471553236246109,-0.06407402455806732,-0.0037526243831962347,-0.01682443544268608,0.021899770945310593,0.02963925153017044,-0.07879813760519028,-0.030515559017658234,0.028787648305296898,0.0031669309828430414,0.04749433323740959,0.06291278451681137,0.04429351165890694,0.049088820815086365,-0.03902902081608772,0.020990051329135895,0.07861892879009247,0.009956814348697662,0.0770144909620285,-0.07664557546377182,0.006307381670922041,0.05883825942873955,-0.0795692726969719,-0.003916003275662661,-0.02936452627182007,-0.008016388863325119,0.0035807352978736162,0.06822313368320465,0.002861898858100176,-0.010675143450498581,-0.036789633333683014,0.06467017531394958,-0.06074381247162819,0.07552623748779297,-0.0038565134163945913,-0.022904589772224426,-0.022743921726942062,-0.07871989905834198,0.06610582023859024,0.0702599510550499,-0.06264875084161758,0.018189629539847374,0.04920225590467453,0.018459144979715347,-0.05383826419711113,0.07497885078191757,0.07816900312900543,-0.02335120551288128,0.03732733055949211,0.06612745672464371,0.005753724370151758,-0.016409702599048615,0.04231745004653931,0.026134511455893517,0.027049746364355087,-0.07986192405223846,-0.029881363734602928,-0.04004780948162079,0.044031232595443726,-0.026783471927046776,0.04551977664232254,-0.016696223989129066,-0.05158747732639313,0.07630670070648193,-0.006353385280817747,-0.055974625051021576,0.03385450318455696,-0.02098041959106922,0.030752360820770264,-0.0787249207496643,0.038071975111961365,0.07994186878204346,0.049680281430482864,-0.06680349260568619,-0.027508782222867012,-0.03459104150533676,-0.05569060146808624,-0.0712553933262825,-0.04807262122631073,-0.034060124307870865,-0.004989967215806246,-0.013304989784955978,-0.06460647284984589,0.06980616599321365,-0.04062298312783241,0.04763200879096985,-0.06306140869855881,0.06617352366447449,0.07012417167425156,-0.02138778194785118,0.07538725435733795,-0.010832409374415874,-0.034220851957798004,0.001370327896438539,-0.04997682571411133,-0.06318320333957672,-0.03143120929598808,0.007378461305052042,0.05837824195623398,0.0723143145442009,0.006728737615048885,-0.032831091433763504,0.04263017699122429,0.049131739884614944,0.009641943499445915,-0.04251919686794281,0.016220858320593834,0.010215953923761845,0.02361195906996727,0.06141236796975136,0.006181140895932913,-0.005761869251728058,-0.010440338402986526,-0.032135747373104095,0.05093248188495636,0.05418835207819939,0.07465904206037521,0.015374789014458656,-0.025621619075536728,-0.05132181569933891,0.02063104324042797,-0.026630708947777748,-0.04212933033704758,0.025126013904809952,-0.03594597056508064,-0.028038792312145233,0.006425964646041393,-0.017143655568361282,-0.020879598334431648,0.047408539801836014,0.03223404288291931,-0.04835360869765282,-0.028497831895947456,0.016601886600255966,0.01572214812040329,0.022885087877511978,0.01822030358016491,0.024428149685263634,0.019225990399718285,0.018707985058426857,-0.05106435343623161,-0.026188241317868233,0.07459481060504913]},"inputBias":{"rows":20,"columns":1,"weights":[0,0,0,0,0,0,0,0,0,0,0,0,0,0,0,0,0,0,0,0]},"forgetMatrix":{"rows":20,"columns":20,"weights":[-0.01629784144461155,-0.07925934344530106,0.017532043159008026,0.02072594128549099,0.04850461706519127,-0.030758187174797058,0.07599947601556778,-0.039179954677820206,-0.0068042222410440445,0.03535769507288933,-0.0003022252058144659,-0.012072722427546978,0.016510115936398506,0.07861083745956421,-0.014150045812129974,0.005132009740918875,0.021947713568806648,-0.06461116671562195,-0.020634863525629044,0.014693924225866795,-0.03909043222665787,0.03705061599612236,0.017910869792103767,-0.056555308401584625,0.0737353190779686,-0.01618252322077751,0.005012132693082094,-0.014414624311029911,-0.0772414430975914,-0.001179712824523449,0.0030976866837590933,-0.050811734050512314,0.012721734121441841,-0.011168139986693859,0.01592625491321087,0.05344309285283089,0.00840802676975727,-0.061375975608825684,-0.03972332179546356,0.04525258392095566,0.07770415395498276,0.02583840675652027,-0.005679223220795393,-0.05212564393877983,-0.058631107211112976,0.049641698598861694,0.05131462588906288,-0.03253108263015747,-0.026004375889897346,0.06308256089687347,-0.07948318868875504,-0.004195754881948233,0.04094342514872551,0.023368360474705696,0.03664155676960945,-0.0061829108744859695,-0.07128185778856277,0.05705924332141876,0.06814978271722794,0.06237807869911194,-0.06574496626853943,-0.04870002344250679,0.040222033858299255,0.0328938327729702,0.07256060838699341,-0.05506550893187523,0.07105036079883575,-0.011771283112466335,0.03469284251332283,-0.04438772425055504,-0.03372864052653313,0.039669185876846313,-0.07284265756607056,-0.044768646359443665,-0.041655540466308594,0.017693817615509033,0.07903876155614853,-0.006365659646689892,-0.06120356544852257,-0.01189184095710516,0.05850886553525925,0.026772424578666687,-0.026940591633319855,-0.01024779211729765,-0.04962371662259102,-0.02427160181105137,-0.052317555993795395,-0.05181485414505005,-0.056245360523462296,0.010825550183653831,-0.05565861612558365,0.06392752379179001,0.006746393162757158,0.06770051270723343,-0.032591093331575394,0.02271595038473606,0.040834564715623856,-0.026484351605176926,-0.03775697946548462,0.011681852862238884,0.07901941984891891,-0.01782594621181488,0.05520092695951462,0.03280453011393547,0.006020658649504185,-0.0031812996603548527,-0.05205456167459488,0.03063487820327282,0.027874760329723358,-0.0791151225566864,-0.028650473803281784,-0.0499107651412487,-0.05361434444785118,-0.07677661627531052,0.00815179105848074,-0.048013120889663696,0.01633320190012455,-0.016856178641319275,-0.03190802037715912,0.06305988132953644,-0.030569344758987427,-0.030889837071299553,-0.04679147154092789,0.00138891173992306,-0.044896021485328674,-0.047511544078588486,-0.004021636210381985,-0.0005577047704719007,0.03252211958169937,-0.05006624385714531,-0.04129311442375183,0.06298040598630905,-0.07720966637134552,-0.027027402073144913,0.05556607246398926,0.025744974613189697,-0.03920682519674301,-0.07497221231460571,-0.03269658982753754,-0.04492650181055069,-0.04707169905304909,0.04323611781001091,0.012696770019829273,-0.06818072497844696,-0.012272893451154232,0.014516904950141907,-0.022560469806194305,0.04861703887581825,0.07856085896492004,0.06265264004468918,-0.00773663679137826,0.0623873807489872,0.004451066721230745,0.01017257571220398,0.010567140765488148,-0.05422450602054596,-0.0027632759883999825,-0.03417880833148956,0.03717944398522377,0.07178741693496704,0.019878288730978966,0.06708941608667374,0.048249371349811554,0.016457343474030495,-0.03408221900463104,-0.027192048728466034,0.0233489740639925,-0.0006864250171929598,-0.04333561286330223,0.048425380140542984,-0.01390120293945074,-0.004422476515173912,0.00003014692265423946,-0.055350687354803085,0.07424543797969818,-0.053795281797647476,-0.07004028558731079,0.03956855088472366,0.02858556993305683,-0.0396583117544651,-0.06570307165384293,0.05496703088283539,-0.023773163557052612,0.07621733844280243,0.025256596505641937,0.07904170453548431,-0.009058891795575619,-0.060249146074056625,-0.022706173360347748,-0.01167201716452837,0.06761422753334045,-0.04426369071006775,-0.06022867560386658,0.07943826168775558,-0.04696295037865639,0.027260081842541695,-0.06142706796526909,0.047351617366075516,-0.06232142075896263,0.04938741773366928,-0.036206405609846115,-0.047212645411491394,0.06730902940034866,-0.07623371481895447,-0.07956421375274658,0.04685365408658981,0.03782185539603233,0.00813436508178711,0.002355741336941719,0.05275476351380348,-0.003853012342005968,-0.0007506785332225263,0.0361098051071167,0.004802594427019358,-0.034219998866319656,0.0545833595097065,0.04744023084640503,-0.005150538869202137,-0.06485182791948318,-0.04897179827094078,0.028169261291623116,0.0334445983171463,-0.064829520881176,-0.051110103726387024,0.047376882284879684,-0.0227041095495224,0.06734009832143784,0.0772215723991394,-0.04127771034836769,-0.05055532604455948,-0.04095298424363136,0.011728277429938316,0.07653485238552094,-0.016170328482985497,0.031928371638059616,-0.02875225991010666,0.019614363089203835,0.04507974535226822,0.047623053193092346,0.0268914345651865,-0.04560525342822075,-0.07762923091650009,0.050036124885082245,0.015180726535618305,-0.06970370560884476,-0.05109074339270592,0.05455251410603523,-0.009033136069774628,0.0336882621049881,0.005319639109075069,-0.07537847012281418,0.033545613288879395,-0.008430861867964268,-0.04741491749882698,0.07604077458381653,-0.05400688201189041,0.0090305395424366,-0.05322762206196785,-0.07529406249523163,0.019090380519628525,0.07656769454479218,-0.06412636488676071,0.0700187161564827,-0.05534443259239197,-0.011116376146674156,-0.012027546763420105,0.0785875916481018,0.05766388401389122,-0.01910075731575489,0.027943860739469528,0.025275638327002525,-0.054175104945898056,0.0768113061785698,0.07908182591199875,-0.01115615013986826,0.07752768695354462,0.05318169295787811,0.0047447714023292065,-0.07686341553926468,0.030107788741588593,0.04548565670847893,0.048465874046087265,-0.007237502373754978,0.05563464015722275,0.04726797714829445,0.046843066811561584,0.04059823602437973,-0.03285960480570793,0.02503691054880619,0.06470727920532227,-0.03764486312866211,0.011171783320605755,0.020307626575231552,-0.06138593330979347,